{"learner":{"attributes":{"best_iteration":"99","best_ntree_limit":"100","scikit_learn":"{\"use_label_encoder\": false, \"n_estimators\": 100, \"objective\": \"multi:softprob\", \"max_depth\": null, \"max_leaves\": null, \"max_bin\": null, \"grow_policy\": null, \"learning_rate\": null, \"verbosity\": null, \"booster\": null, \"tree_method\": null, \"gamma\": null, \"min_child_weight\": null, \"max_delta_step\": null, \"subsample\": null, \"sampling_method\": null, \"colsample_bytree\": null, \"colsample_bylevel\": null, \"colsample_bynode\": null, \"reg_alpha\": null, \"reg_lambda\": null, \"scale_pos_weight\": null, \"base_score\": null, \"missing\": NaN, \"num_parallel_tree\": null, \"random_state\": null, \"n_jobs\": null, \"monotone_constraints\": null, \"interaction_constraints\": null, \"importance_type\": null, \"gpu_id\": null, \"validate_parameters\": null, \"predictor\": null, \"enable_categorical\": false, \"max_cat_to_onehot\": null, \"eval_metric\": null, \"early_stopping_rounds\": null, \"callbacks\": null, \"classes_\": [0, 1, 2, 3], \"n_classes_\": 4, \"_estimator_type\": \"classifier\"}"},"feature_names":["GSR_label","HR_label","BP_label","SUHU_label","RESPIRASI_label"],"feature_types":["int","int","int","int","int"],"gradient_booster":{"model":{"gbtree_model_param":{"num_parallel_tree":"1","num_trees":"400","size_leaf_vector":"0"},"tree_info":[0,1,2,3,0,1,2,3,0,1,2,3,0,1,2,3,0,1,2,3,0,1,2,3,0,1,2,3,0,1,2,3,0,1,2,3,0,1,2,3,0,1,2,3,0,1,2,3,0,1,2,3,0,1,2,3,0,1,2,3,0,1,2,3,0,1,2,3,0,1,2,3,0,1,2,3,0,1,2,3,0,1,2,3,0,1,2,3,0,1,2,3,0,1,2,3,0,1,2,3,0,1,2,3,0,1,2,3,0,1,2,3,0,1,2,3,0,1,2,3,0,1,2,3,0,1,2,3,0,1,2,3,0,1,2,3,0,1,2,3,0,1,2,3,0,1,2,3,0,1,2,3,0,1,2,3,0,1,2,3,0,1,2,3,0,1,2,3,0,1,2,3,0,1,2,3,0,1,2,3,0,1,2,3,0,1,2,3,0,1,2,3,0,1,2,3,0,1,2,3,0,1,2,3,0,1,2,3,0,1,2,3,0,1,2,3,0,1,2,3,0,1,2,3,0,1,2,3,0,1,2,3,0,1,2,3,0,1,2,3,0,1,2,3,0,1,2,3,0,1,2,3,0,1,2,3,0,1,2,3,0,1,2,3,0,1,2,3,0,1,2,3,0,1,2,3,0,1,2,3,0,1,2,3,0,1,2,3,0,1,2,3,0,1,2,3,0,1,2,3,0,1,2,3,0,1,2,3,0,1,2,3,0,1,2,3,0,1,2,3,0,1,2,3,0,1,2,3,0,1,2,3,0,1,2,3,0,1,2,3,0,1,2,3,0,1,2,3,0,1,2,3,0,1,2,3,0,1,2,3,0,1,2,3,0,1,2,3,0,1,2,3,0,1,2,3,0,1,2,3,0,1,2,3,0,1,2,3,0,1,2,3,0,1,2,3,0,1,2,3],"trees":[{"base_weights":[1.0050251E-2,1.4455446E0,-4.6557376E-1,-0E0,1.6404494E0,-1.3793103E-1,-6.395939E-1,1.7922078E0,4E-1,-6.0240966E-1,8.292683E-1,1.4482758E0,-4E-1],"categories":[],"categories_nodes":[],"categories_segments":[],"categories_sizes":[],"default_left":[1,1,1,0,1,1,0,0,0,0,1,0,0],"id":0,"left_children":[1,3,5,-1,7,9,-1,-1,-1,-1,11,-1,-1],"loss_changes":[3.46401E1,3.5570145E0,2.0855312E0,0E0,1.3773823E0,7.0135884E0,0E0,0E0,0E0,0E0,4.4790583E0,0E0,0E0],"parents":[2147483647,0,0,1,1,2,2,4,4,5,5,10,10],"right_children":[2,4,6,-1,8,10,-1,-1,-1,-1,12,-1,-1],"split_conditions":[5E-1,1.5E0,1.5E0,-0E0,2.5E0,1.5E0,-1.9187818E-1,5.376624E-1,1.20000005E-1,-1.807229E-1,2.5E0,4.3448275E-1,-1.20000005E-1],"split_indices":[3,1,0,0,2,4,0,0,0,0,1,0,0],"split_type":[0,0,0,0,0,0,0,0,0,0,0,0,0],"sum_hessian":[4.875E1,1.1625E1,3.7125E1,1.5E0,1.0125E1,1.35E1,2.3625E1,8.625E0,1.5E0,9.375E0,4.125E0,2.625E0,1.5E0],"tree_param":{"num_deleted":"0","num_feature":"5","num_nodes":"13","size_leaf_vector":"0"}},{"base_weights":[7.035176E-2,1.5409836E0,-5.633803E-1,1.826087E0,5.263158E-1,1.7142858E-1,-6.459144E-1,1.3043479E0,-4.347826E-1,1.0588236E0,-4.6153846E-1],"categories":[],"categories_nodes":[],"categories_segments":[],"categories_sizes":[],"default_left":[1,1,1,0,1,1,0,0,0,0,0],"id":1,"left_children":[1,3,5,-1,7,9,-1,-1,-1,-1,-1],"loss_changes":[4.723449E1,3.4505005E0,2.263689E0,0E0,4.1189938E0,2.946089E0,0E0,0E0,0E0,0E0,0E0],"parents":[2147483647,0,0,1,1,2,2,4,4,5,5],"right_children":[2,4,6,-1,8,10,-1,-1,-1,-1,-1],"split_conditions":[5E-1,5E-1,5E-1,5.478261E-1,5E-1,1E0,-1.9377433E-1,3.9130437E-1,-1.3043478E-1,3.176471E-1,-1.3846155E-1],"split_indices":[4,2,2,0,1,1,0,0,0,0,0],"split_type":[0,0,0,0,0,0,0,0,0,0,0],"sum_hessian":[4.875E1,1.425E1,3.45E1,1.05E1,3.75E0,3.375E0,3.1125E1,1.875E0,1.875E0,1.125E0,2.25E0],"tree_param":{"num_deleted":"0","num_feature":"5","num_nodes":"11","size_leaf_vector":"0"}},{"base_weights":[9.045226E-2,-4.8464164E-1,1.5752212E0,-6.4615387E-1,6.3414633E-1,1.1764706E-1,1.6923077E0,-4.347826E-1,1.3846154E0,4E-1,1.826087E0],"categories":[],"categories_nodes":[],"categories_segments":[],"categories_sizes":[],"default_left":[1,1,1,0,1,0,1,0,0,0,0],"id":2,"left_children":[1,3,5,-1,7,-1,9,-1,-1,-1,-1],"loss_changes":[4.3244026E1,7.0278177E0,2.2115097E0,0E0,4.7132716E0,0E0,1.5170593E0,0E0,0E0,0E0,0E0],"parents":[2147483647,0,0,1,1,2,2,4,4,6,6],"right_children":[2,4,6,-1,8,-1,10,-1,-1,-1,-1],"split_conditions":[2.5E0,2.5E0,5E-1,-1.9384617E-1,2.5E0,3.529412E-2,5E-1,-1.3043478E-1,4.1538465E-1,1.20000005E-1,5.478261E-1],"split_indices":[2,1,4,0,0,0,3,0,0,0,0],"split_type":[0,0,0,0,0,0,0,0,0,0,0],"sum_hessian":[4.875E1,3.5625E1,1.3125E1,3.15E1,4.125E0,1.125E0,1.2E1,1.875E0,2.25E0,1.5E0,1.05E1],"tree_param":{"num_deleted":"0","num_feature":"5","num_nodes":"11","size_leaf_vector":"0"}},{"base_weights":[-1.7085427E-1,1.1325301E0,-5.01548E-1,1.4366198E0,-4E-1,-2.184874E-1,-6.415094E-1,-0E0,1.7288135E0,-6.086956E-1,8.5714287E-1],"categories":[],"categories_nodes":[],"categories_segments":[],"categories_sizes":[],"default_left":[1,1,1,1,0,1,0,0,0,0,0],"id":3,"left_children":[1,3,5,7,-1,9,-1,-1,-1,-1,-1],"loss_changes":[2.2011314E1,5.4096727E0,1.4593983E0,3.7254715E0,0E0,6.765071E0,0E0,0E0,0E0,0E0,0E0],"parents":[2147483647,0,0,1,1,2,2,3,3,5,5],"right_children":[2,4,6,8,-1,10,-1,-1,-1,-1,-1],"split_conditions":[5E-1,1.5E0,1.5E0,5E-1,-1.20000005E-1,5E-1,-1.9245283E-1,-0E0,5.186441E-1,-1.826087E-1,2.5714287E-1],"split_indices":[0,4,3,2,0,3,0,0,0,0,0],"split_type":[0,0,0,0,0,0,0,0,0,0,0],"sum_hessian":[4.875E1,9.375E0,3.9375E1,7.875E0,1.5E0,1.3875E1,2.55E1,1.5E0,6.375E0,1.05E1,3.375E0],"tree_param":{"num_deleted":"0","num_feature":"5","num_nodes":"11","size_leaf_vector":"0"}},{"base_weights":[8.255162E-3,9.5476454E-1,-4.178319E-1,1.0392619E-2,1.05497E0,-1.11385696E-1,-5.958143E-1,1.1592793E0,3.6651888E-1,-5.574448E-1,6.289477E-1,1.0134835E0,-3.573996E-1],"categories":[],"categories_nodes":[],"categories_segments":[],"categories_sizes":[],"default_left":[1,1,1,0,1,1,0,0,0,0,1,0,0],"id":4,"left_children":[1,3,5,-1,7,9,-1,-1,-1,-1,11,-1,-1],"loss_changes":[1.9762175E1,1.4282513E0,1.7773671E0,0E0,5.6178E-1,4.858181E0,0E0,0E0,0E0,0E0,2.4869316E0,0E0,0E0],"parents":[2147483647,0,0,1,1,2,2,4,4,5,5,10,10],"right_children":[2,4,6,-1,8,10,-1,-1,-1,-1,12,-1,-1],"split_conditions":[5E-1,1.5E0,1.5E0,3.117786E-3,2.5E0,1.5E0,-1.7874429E-1,3.477838E-1,1.0995567E-1,-1.6723345E-1,2.5E0,3.0404508E-1,-1.0721989E-1],"split_indices":[3,1,0,0,0,4,0,0,0,0,1,0,0],"split_type":[0,0,0,0,0,0,0,0,0,0,0,0,0],"sum_hessian":[4.7012554E1,1.4208666E1,3.280389E1,1.4689045E0,1.2739761E1,1.2649711E1,2.0154179E1,1.0469588E1,2.2701728E0,8.047835E0,4.6018753E0,3.2912438E0,1.3106315E0],"tree_param":{"num_deleted":"0","num_feature":"5","num_nodes":"13","size_leaf_vector":"0"}},{"base_weights":[5.746315E-2,1.0113745E0,-5.1542443E-1,2.712076E-1,1.1225271E0,1.4502667E-1,-6.023297E-1,-3.5800782E-1,7.603397E-1,8.1135094E-1,-4.2680404E-1],"categories":[],"categories_nodes":[],"categories_segments":[],"categories_sizes":[],"default_left":[1,1,1,1,0,1,0,0,0,0,0],"id":5,"left_children":[1,3,5,7,-1,9,-1,-1,-1,-1,-1],"loss_changes":[2.6985489E1,1.218256E0,1.8619518E0,1.4217558E0,0E0,2.0232606E0,0E0,0E0,0E0,0E0,0E0],"parents":[2147483647,0,0,1,1,2,2,3,3,5,5],"right_children":[2,4,6,8,-1,10,-1,-1,-1,-1,-1],"split_conditions":[5E-1,1.5E0,5E-1,1.5E0,3.3675814E-1,1E0,-1.806989E-1,-1.0740235E-1,2.2810191E-1,2.434053E-1,-1.2804122E-1],"split_indices":[4,3,2,0,0,1,0,0,0,0,0],"split_type":[0,0,0,0,0,0,0,0,0,0,0],"sum_hessian":[4.742631E1,1.7508171E1,2.9918139E1,2.7350955E0,1.4773076E1,3.401218E0,2.651692E1,1.313498E0,1.4215975E0,1.3773725E0,2.0238454E0],"tree_param":{"num_deleted":"0","num_feature":"5","num_nodes":"11","size_leaf_vector":"0"}},{"base_weights":[7.304558E-2,-4.4238043E-1,1.0262959E0,-6.021214E-1,4.4896972E-1,1.9506136E-1,1.1926512E0,-4.1816854E-1,9.0414643E-1,-3.9962736E-1,7.7606785E-1],"categories":[],"categories_nodes":[],"categories_segments":[],"categories_sizes":[],"default_left":[1,1,1,0,1,1,0,0,0,0,0],"id":6,"left_children":[1,3,5,-1,7,9,-1,-1,-1,-1,-1],"loss_changes":[2.4336954E1,4.8620424E0,2.1679401E0,0E0,2.5386252E0,1.7234731E0,0E0,0E0,0E0,0E0,0E0],"parents":[2147483647,0,0,1,1,2,2,4,4,5,5],"right_children":[2,4,6,-1,8,10,-1,-1,-1,-1,-1],"split_conditions":[2.5E0,2.5E0,1.5E0,-1.8063644E-1,2.5E0,2.5E0,3.5779536E-1,-1.2545057E-1,2.7124393E-1,-1.1988821E-1,2.3282036E-1],"split_indices":[1,2,2,0,0,0,0,0,0,0,0],"split_type":[0,0,0,0,0,0,0,0,0,0,0],"sum_hessian":[4.7608757E1,3.1248499E1,1.6360258E1,2.6774637E1,4.473862E0,3.0904818E0,1.3269775E1,1.5680122E0,2.90585E0,1.6815319E0,1.4089497E0],"tree_param":{"num_deleted":"0","num_feature":"5","num_nodes":"11","size_leaf_vector":"0"}},{"base_weights":[-1.444981E-1,7.8483236E-1,-4.519955E-1,9.595887E-1,-3.5785982E-1,-1.8194154E-1,-5.973755E-1,-3.2393843E-2,1.1305575E0,-5.634975E-1,6.3052946E-1],"categories":[],"categories_nodes":[],"categories_segments":[],"categories_sizes":[],"default_left":[1,1,1,1,0,1,0,0,0,0,0],"id":7,"left_children":[1,3,5,7,-1,9,-1,-1,-1,-1,-1],"loss_changes":[1.3663804E1,2.728602E0,1.2901158E0,1.8397226E0,0E0,4.666256E0,0E0,0E0,0E0,0E0,0E0],"parents":[2147483647,0,0,1,1,2,2,3,3,5,5],"right_children":[2,4,6,8,-1,10,-1,-1,-1,-1,-1],"split_conditions":[5E-1,1.5E0,1.5E0,5E-1,-1.0735795E-1,5E-1,-1.7921266E-1,-9.718154E-3,3.3916727E-1,-1.6904925E-1,1.8915884E-1],"split_indices":[0,4,3,4,0,3,0,0,0,0,0],"split_type":[0,0,0,0,0,0,0,0,0,0,0],"sum_hessian":[4.5573177E1,1.0944367E1,3.462881E1,9.631607E0,1.3127606E0,1.2906162E1,2.1722649E1,1.5351282E0,8.096479E0,8.990464E0,3.9156985E0],"tree_param":{"num_deleted":"0","num_feature":"5","num_nodes":"11","size_leaf_vector":"0"}},{"base_weights":[7.6104603E-3,7.331973E-1,-3.8258845E-1,9.527698E-3,8.0663776E-1,-9.452575E-2,-5.616482E-1,8.7400556E-1,2.1755521E-1,-5.209372E-1,5.1422125E-1,7.944697E-1,-3.1889728E-1],"categories":[],"categories_nodes":[],"categories_segments":[],"categories_sizes":[],"default_left":[1,1,1,0,1,1,0,0,0,0,1,0,0],"id":8,"left_children":[1,3,5,-1,7,9,-1,-1,-1,-1,11,-1,-1],"loss_changes":[1.27147455E1,8.267908E-1,1.4539208E0,0E0,3.7508392E-1,3.48711E0,0E0,0E0,0E0,0E0,1.563627E0,0E0,0E0],"parents":[2147483647,0,0,1,1,2,2,4,4,5,5,10,10],"right_children":[2,4,6,-1,8,10,-1,-1,-1,-1,12,-1,-1],"split_conditions":[5E-1,1.5E0,1.5E0,2.8583095E-3,2.5E0,1.5E0,-1.6849446E-1,2.6220167E-1,6.5266564E-2,-1.5628117E-1,2.5E0,2.3834093E-1,-9.566919E-2],"split_indices":[3,1,0,0,2,4,0,0,0,0,1,0,0],"split_type":[0,0,0,0,0,0,0,0,0,0,0,0,0],"sum_hessian":[4.2918102E1,1.4701387E1,2.8216715E1,1.4585755E0,1.3242812E1,1.1401856E1,1.6814857E1,1.1449741E1,1.7930713E0,6.7899323E0,4.611924E0,3.4857585E0,1.1261659E0],"tree_param":{"num_deleted":"0","num_feature":"5","num_nodes":"13","size_leaf_vector":"0"}},{"base_weights":[4.904496E-2,7.788159E-1,-4.785941E-1,8.662317E-1,1.9535798E-1,1.2528929E-1,-5.6937414E-1,6.2087655E-1,-3.583842E-1,6.5213954E-1,-3.9173773E-1],"categories":[],"categories_nodes":[],"categories_segments":[],"categories_sizes":[],"default_left":[1,1,1,0,1,1,0,0,0,0,0],"id":9,"left_children":[1,3,5,-1,7,9,-1,-1,-1,-1,-1],"loss_changes":[1.747499E1,8.0076885E-1,1.5184245E0,0E0,1.1106632E0,1.4183881E0,0E0,0E0,0E0,0E0,0E0],"parents":[2147483647,0,0,1,1,2,2,4,4,5,5],"right_children":[2,4,6,-1,8,10,-1,-1,-1,-1,-1],"split_conditions":[5E-1,1.5E0,5E-1,2.5986952E-1,1E0,1E0,-1.7081225E-1,1.8626297E-1,-1.0751526E-1,1.9564188E-1,-1.1752132E-1],"split_indices":[4,2,2,0,1,1,0,0,0,0,0],"split_type":[0,0,0,0,0,0,0,0,0,0,0],"sum_hessian":[4.341502E1,1.8018215E1,2.5396805E1,1.5248915E1,2.7692995E0,3.2692301E0,2.2127575E1,1.4973984E0,1.2719011E0,1.4897994E0,1.7794306E0],"tree_param":{"num_deleted":"0","num_feature":"5","num_nodes":"11","size_leaf_vector":"0"}},{"base_weights":[6.300758E-2,-4.0973818E-1,7.987217E-1,-5.698376E-1,3.59436E-1,1.7220578E-1,9.123007E-1,-3.807494E-1,7.1641153E-1,-3.6279473E-1,6.318928E-1],"categories":[],"categories_nodes":[],"categories_segments":[],"categories_sizes":[],"default_left":[1,1,1,0,1,1,0,0,0,0,0],"id":10,"left_children":[1,3,5,-1,7,9,-1,-1,-1,-1,-1],"loss_changes":[1.58398075E1,3.6299906E0,1.1085958E0,0E0,1.7009721E0,1.2037207E0,0E0,0E0,0E0,0E0,0E0],"parents":[2147483647,0,0,1,1,2,2,4,4,5,5],"right_children":[2,4,6,-1,8,10,-1,-1,-1,-1,-1],"split_conditions":[2.5E0,2.5E0,1.5E0,-1.7095129E-1,2.5E0,2.5E0,2.7369022E-1,-1.1422483E-1,2.1492347E-1,-1.08838424E-1,1.8956785E-1],"split_indices":[1,2,2,0,0,0,0,0,0,0,0],"split_type":[0,0,0,0,0,0,0,0,0,0,0],"sum_hessian":[4.3601166E1,2.681427E1,1.6786898E1,2.2409094E1,4.405175E0,2.9623563E0,1.3824541E1,1.4116123E0,2.993563E0,1.4664395E0,1.4959168E0],"tree_param":{"num_deleted":"0","num_feature":"5","num_nodes":"11","size_leaf_vector":"0"}},{"base_weights":[-1.2700866E-1,6.1657625E-1,-4.1321036E-1,7.429009E-1,-3.1992015E-1,-1.5838973E-1,-5.6272656E-1,-2.052363E-2,8.640916E-1,4.9200714E-1,-5.3779656E-1,-3.663873E-1,8.676706E-1],"categories":[],"categories_nodes":[],"categories_segments":[],"categories_sizes":[],"default_left":[1,1,1,1,0,1,0,0,0,1,0,0,0],"id":11,"left_children":[1,3,5,7,-1,9,-1,-1,-1,11,-1,-1,-1],"loss_changes":[9.17361E0,1.6630607E0,1.0866346E0,1.027832E0,0E0,3.423987E0,0E0,0E0,0E0,2.0073996E0,0E0,0E0,0E0],"parents":[2147483647,0,0,1,1,2,2,3,3,5,5,9,9],"right_children":[2,4,6,8,-1,10,-1,-1,-1,12,-1,-1,-1],"split_conditions":[5E-1,1.5E0,1.5E0,5E-1,-9.597605E-2,1.5E0,-1.6881797E-1,-6.1570895E-3,2.5922748E-1,5E-1,-1.6133897E-1,-1.09916195E-1,2.603012E-1],"split_indices":[0,4,3,4,0,1,0,0,0,1,0,0,0],"split_type":[0,0,0,0,0,0,0,0,0,0,0,0,0],"sum_hessian":[4.0908813E1,1.1048694E1,2.9860119E1,9.917622E0,1.1310718E0,1.1803223E1,1.8056896E1,1.4724938E0,8.445128E0,4.239277E0,7.563946E0,1.2980084E0,2.9412682E0],"tree_param":{"num_deleted":"0","num_feature":"5","num_nodes":"13","size_leaf_vector":"0"}},{"base_weights":[7.145636E-3,6.0846084E-1,-3.5648313E-1,7.304322E-1,2.027762E-1,-8.394786E-2,-5.337521E-1,2.4712871E-1,7.6654446E-1,-4.8783323E-1,4.32466E-1,5.697077E-1,1.8628582E-1],"categories":[],"categories_nodes":[],"categories_segments":[],"categories_sizes":[],"default_left":[1,1,1,1,0,1,0,0,0,0,1,0,0],"id":12,"left_children":[1,3,5,7,-1,9,-1,-1,-1,-1,11,-1,-1],"loss_changes":[8.671458E0,5.911622E-1,1.1497443E0,4.3382645E-3,0E0,2.4908955E0,0E0,0E0,0E0,0E0,7.3862195E-2,0E0,0E0],"parents":[2147483647,0,0,1,1,2,2,3,3,5,5,10,10],"right_children":[2,4,6,8,-1,10,-1,-1,-1,-1,12,-1,-1],"split_conditions":[5E-1,1.5E0,1.5E0,5E-1,6.083286E-2,1.5E0,-1.6012563E-1,7.413862E-2,2.2996335E-1,-1.4634998E-1,2.5E0,1.7091231E-1,5.588575E-2],"split_indices":[3,0,0,0,0,4,0,0,0,0,3,0,0],"split_type":[0,0,0,0,0,0,0,0,0,0,0,0,0],"sum_hessian":[3.766609E1,1.3940333E1,2.3725754E1,1.0102474E1,3.8378592E0,9.931112E0,1.3794641E1,1.2476789E0,8.854795E0,5.6037693E0,4.327343E0,1.9346275E0,2.3927155E0],"tree_param":{"num_deleted":"0","num_feature":"5","num_nodes":"13","size_leaf_vector":"0"}},{"base_weights":[4.3581005E-2,6.463831E-1,-4.4848856E-1,7.460561E-1,2.306149E-1,1.0816425E-1,-5.425186E-1,6.0840845E-1,-3.7920934E-1,5.4350305E-1,-3.5911238E-1],"categories":[],"categories_nodes":[],"categories_segments":[],"categories_sizes":[],"default_left":[1,1,1,0,1,1,0,0,0,0,0],"id":13,"left_children":[1,3,5,-1,7,9,-1,-1,-1,-1,-1],"loss_changes":[1.1894891E1,5.736017E-1,1.2170558E0,0E0,1.3657949E0,1.0153611E0,0E0,0E0,0E0,0E0,0E0],"parents":[2147483647,0,0,1,1,2,2,4,4,5,5],"right_children":[2,4,6,-1,8,10,-1,-1,-1,-1,-1],"split_conditions":[5E-1,5E-1,5E-1,2.2381683E-1,5E-1,1E0,-1.627556E-1,1.8252254E-1,-1.137628E-1,1.6305092E-1,-1.0773372E-1],"split_indices":[4,2,2,0,1,1,0,0,0,0,0],"split_type":[0,0,0,0,0,0,0,0,0,0,0],"sum_hessian":[3.812404E1,1.6993193E1,2.1130846E1,1.3066364E1,3.9268289E0,3.0318928E0,1.8098953E1,2.426132E0,1.5006968E0,1.4851354E0,1.5467573E0],"tree_param":{"num_deleted":"0","num_feature":"5","num_nodes":"11","size_leaf_vector":"0"}},{"base_weights":[5.5723716E-2,-3.8458285E-1,6.698998E-1,-5.429094E-1,2.8397238E-1,1.5370443E-1,7.599943E-1,-3.605637E-1,5.9905756E-1,-3.2859614E-1,5.3215814E-1],"categories":[],"categories_nodes":[],"categories_segments":[],"categories_sizes":[],"default_left":[1,1,1,0,1,1,0,0,0,0,0],"id":14,"left_children":[1,3,5,-1,7,9,-1,-1,-1,-1,-1],"loss_changes":[1.0861609E1,2.6389089E0,6.616106E-1,0E0,1.2621368E0,8.576643E-1,0E0,0E0,0E0,0E0,0E0],"parents":[2147483647,0,0,1,1,2,2,4,4,5,5],"right_children":[2,4,6,-1,8,10,-1,-1,-1,-1,-1],"split_conditions":[2.5E0,2.5E0,1.5E0,-1.6287282E-1,2.5E0,2.5E0,2.279983E-1,-1.08169116E-1,1.7971727E-1,-9.857885E-2,1.5964745E-1],"split_indices":[1,2,2,0,0,0,0,0,0,0,0],"split_type":[0,0,0,0,0,0,0,0,0,0,0],"sum_hessian":[3.821216E1,2.2474136E1,1.5738023E1,1.8322872E1,4.151266E0,2.7407823E0,1.299724E1,1.3156481E0,2.8356178E0,1.2629815E0,1.4778007E0],"tree_param":{"num_deleted":"0","num_feature":"5","num_nodes":"11","size_leaf_vector":"0"}},{"base_weights":[-1.1409488E-1,5.208981E-1,-3.8392586E-1,6.160463E-1,-8.059857E-2,-1.4202978E-1,-5.350323E-1,-1.4403221E-2,7.222283E-1,3.9628133E-1,-5.037879E-1,-3.3884287E-1,6.976853E-1],"categories":[],"categories_nodes":[],"categories_segments":[],"categories_sizes":[],"default_left":[1,1,1,1,0,1,0,0,0,1,0,0,0],"id":15,"left_children":[1,3,5,7,-1,9,-1,-1,-1,11,-1,-1,-1],"loss_changes":[6.4568396E0,6.971786E-1,8.8177633E-1,6.720996E-1,0E0,2.4267056E0,0E0,0E0,0E0,1.3788571E0,0E0,0E0,0E0],"parents":[2147483647,0,0,1,1,2,2,3,3,5,5,9,9],"right_children":[2,4,6,8,-1,10,-1,-1,-1,12,-1,-1,-1],"split_conditions":[5E-1,1.5E0,1.5E0,5E-1,-2.4179572E-2,1.5E0,-1.6050969E-1,-4.3209665E-3,2.166685E-1,5E-1,-1.5113637E-1,-1.0165287E-1,2.093056E-1],"split_indices":[0,2,3,2,0,1,0,0,0,1,0,0,0],"split_type":[0,0,0,0,0,0,0,0,0,0,0,0,0],"sum_hessian":[3.5517017E1,1.0314188E1,2.520283E1,8.884583E0,1.4296038E0,1.0436183E1,1.4766645E1,1.4052637E0,7.47932E0,4.156181E0,6.280002E0,1.172424E0,2.9837568E0],"tree_param":{"num_deleted":"0","num_feature":"5","num_nodes":"13","size_leaf_vector":"0"}},{"base_weights":[9.258651E-3,5.2217597E-1,-3.312087E-1,6.350468E-1,1.6467178E-1,-7.227405E-2,-5.097456E-1,-4.5938995E-1,3.7352878E-1,4.8895282E-1,1.599209E-1],"categories":[],"categories_nodes":[],"categories_segments":[],"categories_sizes":[],"default_left":[1,1,1,0,0,1,0,0,1,0,0],"id":16,"left_children":[1,3,5,-1,-1,7,-1,-1,9,-1,-1],"loss_changes":[6.0418577E0,4.5212483E-1,9.252486E-1,0E0,0E0,1.8384328E0,0E0,0E0,4.6082795E-2,0E0,0E0],"parents":[2147483647,0,0,1,1,2,2,5,5,8,8],"right_children":[2,4,6,-1,-1,8,-1,-1,10,-1,-1],"split_conditions":[5E-1,1.5E0,1.5E0,1.9051404E-1,4.9401537E-2,1.5E0,-1.5292369E-1,-1.37817E-1,2.5E0,1.4668585E-1,4.7976274E-2],"split_indices":[3,0,0,0,0,4,0,0,3,0,0],"split_type":[0,0,0,0,0,0,0,0,0,0,0],"sum_hessian":[3.260737E1,1.2796147E1,1.9811222E1,9.135548E0,3.660599E0,8.658494E0,1.1152727E1,4.6179705E0,4.0405235E0,1.786279E0,2.2542448E0],"tree_param":{"num_deleted":"0","num_feature":"5","num_nodes":"11","size_leaf_vector":"0"}},{"base_weights":[3.858053E-2,5.686282E-1,-4.251665E-1,6.566359E-1,1.99212E-1,9.14762E-2,-5.217916E-1,5.2351785E-1,-3.4356546E-1,4.6459904E-1,-3.2648072E-1],"categories":[],"categories_nodes":[],"categories_segments":[],"categories_sizes":[],"default_left":[1,1,1,0,1,1,0,0,0,0,0],"id":17,"left_children":[1,3,5,-1,7,9,-1,-1,-1,-1,-1],"loss_changes":[8.500489E0,3.9282703E-1,9.708679E-1,0E0,9.780207E-1,7.387391E-1,0E0,0E0,0E0,0E0,0E0],"parents":[2147483647,0,0,1,1,2,2,4,4,5,5],"right_children":[2,4,6,-1,8,10,-1,-1,-1,-1,-1],"split_conditions":[5E-1,5E-1,5E-1,1.9699077E-1,5E-1,5E-1,-1.5653747E-1,1.5705536E-1,-1.0306964E-1,1.3937972E-1,-9.794422E-2],"split_indices":[4,2,1,0,1,2,0,0,0,0,0],"split_type":[0,0,0,0,0,0,0,0,0,0,0],"sum_hessian":[3.2598286E1,1.51062155E1,1.7492071E1,1.1571894E1,3.5343213E0,2.7644064E0,1.4727664E1,2.2346292E0,1.2996924E0,1.4015789E0,1.3628275E0],"tree_param":{"num_deleted":"0","num_feature":"5","num_nodes":"11","size_leaf_vector":"0"}},{"base_weights":[5.0201736E-2,-3.6549172E-1,5.896053E-1,-5.213381E-1,2.3825982E-1,1.3243116E-1,6.6987413E-1,-3.2905462E-1,5.1764387E-1,-3.0198994E-1,4.5892438E-1],"categories":[],"categories_nodes":[],"categories_segments":[],"categories_sizes":[],"default_left":[1,1,1,0,1,1,0,0,0,0,0],"id":18,"left_children":[1,3,5,-1,7,9,-1,-1,-1,-1,-1],"loss_changes":[7.770861E0,1.9728637E0,4.6350527E-1,0E0,9.180237E-1,6.341485E-1,0E0,0E0,0E0,0E0,0E0],"parents":[2147483647,0,0,1,1,2,2,4,4,5,5],"right_children":[2,4,6,-1,8,10,-1,-1,-1,-1,-1],"split_conditions":[2.5E0,2.5E0,1.5E0,-1.5640144E-1,2.5E0,2.5E0,2.0096225E-1,-9.871639E-2,1.5529317E-1,-9.059699E-2,1.3767733E-1],"split_indices":[1,2,2,0,0,0,0,0,0,0,0],"split_type":[0,0,0,0,0,0,0,0,0,0,0],"sum_hessian":[3.2695236E1,1.8647152E1,1.4048086E1,1.4929819E1,3.7173326E0,2.4938912E0,1.1554194E1,1.1679397E0,2.5493927E0,1.1022815E0,1.3916097E0],"tree_param":{"num_deleted":"0","num_feature":"5","num_nodes":"11","size_leaf_vector":"0"}},{"base_weights":[-1.05332285E-1,4.505619E-1,-3.617928E-1,5.758853E-1,3.5437495E-2,-1.3187453E-1,-5.119142E-1,-9.4922744E-2,1.5041277E-1,3.3495012E-1,-4.7474658E-1,-3.070023E-1,5.885811E-1],"categories":[],"categories_nodes":[],"categories_segments":[],"categories_sizes":[],"default_left":[1,1,1,0,1,1,0,0,0,1,0,0,0],"id":19,"left_children":[1,3,5,-1,7,9,-1,-1,-1,11,-1,-1,-1],"loss_changes":[4.6280775E0,5.1716113E-1,6.913731E-1,0E0,6.616161E-2,1.7647555E0,0E0,0E0,0E0,9.678388E-1,0E0,0E0,0E0],"parents":[2147483647,0,0,1,1,2,2,4,4,5,5,9,9],"right_children":[2,4,6,-1,8,10,-1,-1,-1,12,-1,-1,-1],"split_conditions":[5E-1,1.5E0,1.5E0,1.727656E-1,5E-1,1.5E0,-1.5357426E-1,-2.8476825E-2,4.512383E-2,5E-1,-1.4242399E-1,-9.2100695E-2,1.7657433E-1],"split_indices":[0,3,3,0,1,1,0,0,0,1,0,0,0],"split_type":[0,0,0,0,0,0,0,0,0,0,0,0,0],"sum_hessian":[3.031954E1,9.332947E0,2.0986593E1,6.8712897E0,2.461657E0,9.032038E0,1.1954556E1,1.2353785E0,1.2262785E0,3.834467E0,5.197571E0,1.0263346E0,2.8081324E0],"tree_param":{"num_deleted":"0","num_feature":"5","num_nodes":"13","size_leaf_vector":"0"}},{"base_weights":[1.0466238E-2,4.570834E-1,-3.094283E-1,-3.128353E-2,5.214635E-1,-6.451452E-2,-4.8813605E-1,5.934063E-1,8.299209E-2,-4.3355328E-1,3.285137E-1,4.2812055E-1,1.3882552E-1],"categories":[],"categories_nodes":[],"categories_segments":[],"categories_sizes":[],"default_left":[1,1,1,0,1,1,0,0,0,0,1,0,0],"id":20,"left_children":[1,3,5,-1,7,9,-1,-1,-1,-1,11,-1,-1],"loss_changes":[4.2751017E0,4.0865183E-1,7.324548E-1,0E0,3.0032277E-1,1.3775507E0,0E0,0E0,0E0,0E0,2.9230475E-2,0E0,0E0],"parents":[2147483647,0,0,1,1,2,2,4,4,5,5,10,10],"right_children":[2,4,6,-1,8,10,-1,-1,-1,-1,12,-1,-1],"split_conditions":[5E-1,1.5E0,1.5E0,-9.38506E-3,2.5E0,1.5E0,-1.4644082E-1,1.7802191E-1,2.489763E-2,-1.3006599E-1,2.5E0,1.2843618E-1,4.1647658E-2],"split_indices":[3,1,0,0,2,4,0,0,0,0,3,0,0],"split_type":[0,0,0,0,0,0,0,0,0,0,0,0,0],"sum_hessian":[2.7932985E1,1.1478521E1,1.6454464E1,1.3968147E0,1.0081707E1,7.515582E0,8.938882E0,8.357145E0,1.7245617E0,3.8229063E0,3.6926756E0,1.5970705E0,2.0956054E0],"tree_param":{"num_deleted":"0","num_feature":"5","num_nodes":"13","size_leaf_vector":"0"}},{"base_weights":[3.4056153E-2,5.1449585E-1,-4.054225E-1,6.0381603E-1,1.9282718E-1,8.5801E-2,-5.024856E-1,4.515115E-1,-3.1143552E-1,4.039002E-1,-2.9629508E-1],"categories":[],"categories_nodes":[],"categories_segments":[],"categories_sizes":[],"default_left":[1,1,1,0,1,1,0,0,0,0,0],"id":21,"left_children":[1,3,5,-1,7,9,-1,-1,-1,-1,-1],"loss_changes":[6.203816E0,2.8597116E-1,7.768326E-1,0E0,7.293176E-1,5.320917E-1,0E0,0E0,0E0,0E0,0E0],"parents":[2147483647,0,0,1,1,2,2,4,4,5,5],"right_children":[2,4,6,-1,8,10,-1,-1,-1,-1,-1],"split_conditions":[5E-1,5E-1,5E-1,1.8114482E-1,5E-1,1E0,-1.5074567E-1,1.3545346E-1,-9.343066E-2,1.2117007E-1,-8.8888526E-2],"split_indices":[4,1,2,0,2,1,0,0,0,0,0],"split_type":[0,0,0,0,0,0,0,0,0,0,0],"sum_hessian":[2.739416E1,1.3005645E1,1.43885145E1,9.4926195E0,3.5130255E0,2.3931453E0,1.199537E1,2.3910427E0,1.1219829E0,1.2747977E0,1.1183476E0],"tree_param":{"num_deleted":"0","num_feature":"5","num_nodes":"11","size_leaf_vector":"0"}},{"base_weights":[4.625784E-2,-3.495108E-1,5.355328E-1,-5.055836E-1,1.9757633E-1,1.158727E-1,6.095703E-1,-2.9126304E-1,4.5802516E-1],"categories":[],"categories_nodes":[],"categories_segments":[],"categories_sizes":[],"default_left":[1,1,1,0,1,0,0,0,0],"id":22,"left_children":[1,3,5,-1,7,-1,-1,-1,-1],"loss_changes":[5.709854E0,1.497813E0,3.3789897E-1,0E0,6.876081E-1,0E0,0E0,0E0,0E0],"parents":[2147483647,0,0,1,1,2,2,4,4],"right_children":[2,4,6,-1,8,-1,-1,-1,-1],"split_conditions":[2.5E0,2.5E0,1.5E0,-1.5167508E-1,2.5E0,3.4761813E-2,1.828711E-1,-8.737892E-2,1.3740756E-1],"split_indices":[1,0,2,0,2,0,0,0,0],"split_type":[0,0,0,0,0,0,0,0,0],"sum_hessian":[2.7520395E1,1.5371902E1,1.2148493E1,1.2018992E1,3.3529108E0,2.2065237E0,9.941969E0,1.1243304E0,2.2285802E0],"tree_param":{"num_deleted":"0","num_feature":"5","num_nodes":"9","size_leaf_vector":"0"}},{"base_weights":[-9.694871E-2,3.965141E-1,-3.4457773E-1,4.8734453E-1,-1.03507206E-1,-1.2913343E-1,-4.945054E-1,-9.783192E-3,5.769737E-1,-4.564098E-1,3.6660203E-1],"categories":[],"categories_nodes":[],"categories_segments":[],"categories_sizes":[],"default_left":[1,1,1,1,0,1,0,0,0,0,0],"id":23,"left_children":[1,3,5,7,-1,9,-1,-1,-1,-1,-1],"loss_changes":[3.3999822E0,4.76843E-1,5.278156E-1,3.6746705E-1,0E0,1.6063884E0,0E0,0E0,0E0,0E0,0E0],"parents":[2147483647,0,0,1,1,2,2,3,3,5,5],"right_children":[2,4,6,8,-1,10,-1,-1,-1,-1,-1],"split_conditions":[5E-1,1.5E0,1.5E0,5E-1,-3.1052163E-2,5E-1,-1.4835162E-1,-2.9349576E-3,1.7309211E-1,-1.3692296E-1,1.0998061E-1],"split_indices":[0,2,1,4,0,1,0,0,0,0,0],"split_type":[0,0,0,0,0,0,0,0,0,0,0],"sum_hessian":[2.570595E1,8.388507E0,1.7317442E1,7.120414E0,1.2680936E0,7.869857E0,9.447586E0,1.2237478E0,5.8966656E0,4.788136E0,3.0817206E0],"tree_param":{"num_deleted":"0","num_feature":"5","num_nodes":"11","size_leaf_vector":"0"}},{"base_weights":[9.426289E-3,4.0917984E-1,-2.907206E-1,5.2187574E-1,9.091742E-2,-5.7403807E-2,-4.6820417E-1,1.4956042E-1,5.5522615E-1,-4.0769678E-1,2.9063213E-1,3.778394E-1,1.20375864E-1],"categories":[],"categories_nodes":[],"categories_segments":[],"categories_sizes":[],"default_left":[1,1,1,1,0,1,0,0,0,0,1,0,0],"id":24,"left_children":[1,3,5,7,-1,9,-1,-1,-1,-1,11,-1,-1],"loss_changes":[3.0691216E0,3.456415E-1,5.788735E-1,1.4839172E-2,0E0,1.0279394E0,0E0,0E0,0E0,0E0,1.8744022E-2,0E0,0E0],"parents":[2147483647,0,0,1,1,2,2,3,3,5,5,10,10],"right_children":[2,4,6,8,-1,10,-1,-1,-1,-1,12,-1,-1],"split_conditions":[5E-1,1.5E0,1.5E0,5E-1,2.7275229E-2,1.5E0,-1.4046125E-1,4.4868127E-2,1.6656785E-1,-1.2230904E-1,2.5E0,1.1335182E-1,3.611276E-2],"split_indices":[3,0,0,0,0,4,0,0,0,0,3,0,0],"split_type":[0,0,0,0,0,0,0,0,0,0,0,0,0],"sum_hessian":[2.3587822E1,9.959672E0,1.362815E1,6.8827443E0,3.076928E0,6.4597306E0,7.168419E0,1.016732E0,5.866012E0,3.1339924E0,3.3257382E0,1.392992E0,1.9327462E0],"tree_param":{"num_deleted":"0","num_feature":"5","num_nodes":"13","size_leaf_vector":"0"}},{"base_weights":[3.1404894E-2,4.7286245E-1,-3.880466E-1,5.534067E-1,1.375144E-1,6.998437E-2,-4.8522288E-1],"categories":[],"categories_nodes":[],"categories_segments":[],"categories_sizes":[],"default_left":[1,1,1,0,0,0,0],"id":25,"left_children":[1,3,5,-1,-1,-1,-1],"loss_changes":[4.6016107E0,2.5006747E-1,6.0297513E-1,0E0,0E0,0E0,0E0],"parents":[2147483647,0,0,1,1,2,2],"right_children":[2,4,6,-1,-1,-1,-1],"split_conditions":[5E-1,5E-1,5E-1,1.6602202E-1,4.125432E-2,2.0995311E-2,-1.4556687E-1],"split_indices":[4,2,2,0,0,0,0],"split_type":[0,0,0,0,0,0,0],"sum_hessian":[2.2859789E1,1.1075689E1,1.17841E1,8.406387E0,2.6693017E0,2.1115124E0,9.672587E0],"tree_param":{"num_deleted":"0","num_feature":"5","num_nodes":"7","size_leaf_vector":"0"}},{"base_weights":[4.3716293E-2,-3.3338147E-1,4.8879474E-1,-4.8834553E-1,1.7984614E-1,8.515979E-2,5.704034E-1,-1.3933203E-1,3.8805687E-1],"categories":[],"categories_nodes":[],"categories_segments":[],"categories_sizes":[],"default_left":[1,1,1,0,1,0,0,0,0],"id":26,"left_children":[1,3,5,-1,7,-1,-1,-1,-1],"loss_changes":[4.2035403E0,1.1716027E0,3.2850194E-1,0E0,3.1265998E-1,0E0,0E0,0E0,0E0],"parents":[2147483647,0,0,1,1,2,2,4,4],"right_children":[2,4,6,-1,8,-1,-1,-1,-1],"split_conditions":[2.5E0,2.5E0,1.5E0,-1.4650367E-1,2.5E0,2.5547938E-2,1.7112103E-1,-4.179961E-2,1.16417065E-1],"split_indices":[1,0,4,0,3,0,0,0,0],"split_type":[0,0,0,0,0,0,0,0,0],"sum_hessian":[2.3074303E1,1.2626942E1,1.044736E1,9.735796E0,2.8911462E0,2.1007252E0,8.346635E0,1.2720146E0,1.6191317E0],"tree_param":{"num_deleted":"0","num_feature":"5","num_nodes":"9","size_leaf_vector":"0"}},{"base_weights":[-8.9922704E-2,3.5983482E-1,-3.2708147E-1,4.436281E-1,-8.74911E-2,-1.0952361E-1,-4.7388792E-1,1.3431198E-4,5.4101664E-1,-4.2153734E-1,2.7567866E-1],"categories":[],"categories_nodes":[],"categories_segments":[],"categories_sizes":[],"default_left":[1,1,1,1,0,1,0,0,0,0,0],"id":27,"left_children":[1,3,5,7,-1,9,-1,-1,-1,-1,-1],"loss_changes":[2.5298092E0,3.493116E-1,4.3773508E-1,3.0837953E-1,0E0,1.0149041E0,0E0,0E0,0E0,0E0,0E0],"parents":[2147483647,0,0,1,1,2,2,3,3,5,5],"right_children":[2,4,6,8,-1,10,-1,-1,-1,-1,-1],"split_conditions":[5E-1,1.5E0,1.5E0,5E-1,-2.6247332E-2,5E-1,-1.4216638E-1,4.0293595E-5,1.62305E-1,-1.2646121E-1,8.2703605E-2],"split_indices":[0,2,3,1,0,3,0,0,0,0,0],"split_type":[0,0,0,0,0,0,0,0,0,0,0],"sum_hessian":[2.161415E1,7.283724E0,1.4330425E1,6.1415524E0,1.1421716E0,6.477388E0,7.853037E0,1.2861202E0,4.855432E0,3.5265536E0,2.9508345E0],"tree_param":{"num_deleted":"0","num_feature":"5","num_nodes":"11","size_leaf_vector":"0"}},{"base_weights":[1.1048464E-2,3.7111795E-1,-2.7339372E-1,4.803189E-1,8.007902E-2,-4.8615832E-2,-4.4984096E-1,-3.8267073E-1,2.634874E-1,3.422463E-1,1.0515659E-1],"categories":[],"categories_nodes":[],"categories_segments":[],"categories_sizes":[],"default_left":[1,1,1,0,0,1,0,0,1,0,0],"id":28,"left_children":[1,3,5,-1,-1,7,-1,-1,9,-1,-1],"loss_changes":[2.2694724E0,2.7192605E-1,4.7000307E-1,0E0,0E0,7.863478E-1,0E0,0E0,1.3784021E-2,0E0,0E0],"parents":[2147483647,0,0,1,1,2,2,5,5,8,8],"right_children":[2,4,6,-1,-1,8,-1,-1,10,-1,-1],"split_conditions":[5E-1,1.5E0,1.5E0,1.4409567E-1,2.4023706E-2,1.5E0,-1.3495229E-1,-1.1480122E-1,2.5E0,1.02673896E-1,3.154698E-2],"split_indices":[3,0,0,0,0,4,0,0,3,0,0],"split_type":[0,0,0,0,0,0,0,0,0,0,0],"sum_hessian":[2.0168068E1,8.766286E0,1.1401782E1,5.901586E0,2.8646994E0,5.5751147E0,5.826667E0,2.5836458E0,2.991469E0,1.2220106E0,1.7694583E0],"tree_param":{"num_deleted":"0","num_feature":"5","num_nodes":"11","size_leaf_vector":"0"}},{"base_weights":[2.7551861E-2,4.3396556E-1,-3.6881983E-1,5.195658E-1,1.0966137E-1,7.125289E-2,-4.7037086E-1],"categories":[],"categories_nodes":[],"categories_segments":[],"categories_sizes":[],"default_left":[1,1,1,0,0,0,0],"id":29,"left_children":[1,3,5,-1,-1,-1,-1],"loss_changes":[3.4324265E0,2.342118E-1,5.17262E-1,0E0,0E0,0E0,0E0],"parents":[2147483647,0,0,1,1,2,2],"right_children":[2,4,6,-1,-1,-1,-1],"split_conditions":[5E-1,5E-1,5E-1,1.5586975E-1,3.289841E-2,2.1375868E-2,-1.4111127E-1],"split_indices":[4,2,1,0,0,0,0],"split_type":[0,0,0,0,0,0,0],"sum_hessian":[1.931382E1,9.489283E0,9.824537E0,7.031279E0,2.458004E0,1.897978E0,7.926559E0],"tree_param":{"num_deleted":"0","num_feature":"5","num_nodes":"7","size_leaf_vector":"0"}},{"base_weights":[4.125066E-2,-3.207124E-1,4.5473683E-1,-4.708508E-1,1.6911155E-1,6.9454804E-2,5.338769E-1,-1.17569156E-1,3.464612E-1],"categories":[],"categories_nodes":[],"categories_segments":[],"categories_sizes":[],"default_left":[1,1,1,0,1,0,0,0,0],"id":30,"left_children":[1,3,5,-1,7,-1,-1,-1,-1],"loss_changes":[3.2080636E0,9.2507863E-1,2.667346E-1,0E0,2.1526775E-1,0E0,0E0,0E0,0E0],"parents":[2147483647,0,0,1,1,2,2,4,4],"right_children":[2,4,6,-1,8,-1,-1,-1,-1],"split_conditions":[2.5E0,2.5E0,1.5E0,-1.4125524E-1,2.5E0,2.0836443E-2,1.6016307E-1,-3.5270747E-2,1.0393836E-1],"split_indices":[1,2,2,0,3,0,0,0,0],"split_type":[0,0,0,0,0,0,0,0,0],"sum_hessian":[1.9460285E1,1.0496282E1,8.9640045E0,8.063448E0,2.4328332E0,1.8474722E0,7.116533E0,1.0586432E0,1.3741901E0],"tree_param":{"num_deleted":"0","num_feature":"5","num_nodes":"9","size_leaf_vector":"0"}},{"base_weights":[-8.470983E-2,1.6622622E-1,-4.696088E-1,-3.2114413E-1,4.5291665E-1,-1.959407E-3,-4.0144256E-1,4.914658E-1,1.24806955E-1],"categories":[],"categories_nodes":[],"categories_segments":[],"categories_sizes":[],"default_left":[1,1,0,1,1,0,0,0,0],"id":31,"left_children":[1,3,-1,5,7,-1,-1,-1,-1],"loss_changes":[1.9451832E0,1.8837221E0,0E0,1.3230526E-1,4.298401E-2,0E0,0E0,0E0,0E0],"parents":[2147483647,0,0,1,1,3,3,4,4],"right_children":[2,4,-1,6,8,-1,-1,-1,-1],"split_conditions":[1.5E0,5E-1,-1.4088266E-1,5E-1,1.5E0,-5.878221E-4,-1.2043277E-1,1.4743975E-1,3.7442088E-2],"split_indices":[4,4,0,0,3,0,0,0,0],"split_type":[0,0,0,0,0,0,0,0,0],"sum_hessian":[1.833138E1,1.1440707E1,6.8906736E0,4.192807E0,7.2479E0,1.0486894E0,3.144118E0,6.0403566E0,1.2075435E0],"tree_param":{"num_deleted":"0","num_feature":"5","num_nodes":"9","size_leaf_vector":"0"}},{"base_weights":[1.0356693E-2,3.350677E-1,-2.5828338E-1,-5.246596E-2,4.0229195E-1,-4.304547E-2,-4.3096003E-1,4.86814E-1,1.4909984E-2,-3.5733354E-1,2.3680685E-1,3.0654204E-1,9.1392495E-2],"categories":[],"categories_nodes":[],"categories_segments":[],"categories_sizes":[],"default_left":[1,1,1,0,1,1,0,0,0,0,1,0,0],"id":32,"left_children":[1,3,5,-1,7,9,-1,-1,-1,-1,11,-1,-1],"loss_changes":[1.6745679E0,2.4717253E-1,3.7271482E-1,0E0,2.3864341E-1,5.9450066E-1,0E0,0E0,0E0,0E0,9.179592E-3,0E0,0E0],"parents":[2147483647,0,0,1,1,2,2,4,4,5,5,10,10],"right_children":[2,4,6,-1,8,10,-1,-1,-1,-1,12,-1,-1],"split_conditions":[5E-1,1.5E0,1.5E0,-1.573979E-2,2.5E0,1.5E0,-1.2928802E-1,1.4604421E-1,4.472995E-3,-1.07200064E-1,2.5E0,9.196261E-2,2.741775E-2],"split_indices":[3,1,0,0,2,4,0,0,0,0,3,0,0],"split_type":[0,0,0,0,0,0,0,0,0,0,0,0,0],"sum_hessian":[1.7204958E1,7.677602E0,9.527356E0,1.167389E0,6.510213E0,4.7971234E0,4.7302322E0,5.1334743E0,1.3767388E0,2.1291347E0,2.667989E0,1.0543187E0,1.6136702E0],"tree_param":{"num_deleted":"0","num_feature":"5","num_nodes":"13","size_leaf_vector":"0"}},{"base_weights":[2.5030041E-2,3.9956337E-1,-3.4874672E-1,4.957829E-1,8.74033E-2,7.161309E-2,-4.542465E-1],"categories":[],"categories_nodes":[],"categories_segments":[],"categories_sizes":[],"default_left":[1,1,1,0,0,0,0],"id":33,"left_children":[1,3,5,-1,-1,-1,-1],"loss_changes":[2.5659404E0,2.307204E-1,4.4095743E-1,0E0,0E0,0E0,0E0],"parents":[2147483647,0,0,1,1,2,2],"right_children":[2,4,6,-1,-1,-1,-1],"split_conditions":[5E-1,5E-1,5E-1,1.4873488E-1,2.622099E-2,2.1483928E-2,-1.3627395E-1],"split_indices":[4,1,2,0,0,0,0],"split_type":[0,0,0,0,0,0,0],"sum_hessian":[1.6333822E1,8.124194E0,8.209628E0,5.760391E0,2.3638034E0,1.7114848E0,6.4981437E0],"tree_param":{"num_deleted":"0","num_feature":"5","num_nodes":"7","size_leaf_vector":"0"}},{"base_weights":[3.978434E-2,-3.0349132E-1,4.2798015E-1,-4.584623E-1,1.9039558E-1,1.4796807E-1,4.9999842E-1],"categories":[],"categories_nodes":[],"categories_segments":[],"categories_sizes":[],"default_left":[1,1,1,0,0,0,0],"id":34,"left_children":[1,3,5,-1,-1,-1,-1],"loss_changes":[2.4443839E0,8.375662E-1,9.8755E-2,0E0,0E0,0E0,0E0],"parents":[2147483647,0,0,1,1,2,2],"right_children":[2,4,6,-1,-1,-1,-1],"split_conditions":[2.5E0,2.5E0,2.5E0,-1.375387E-1,5.7118677E-2,4.439042E-2,1.4999953E-1],"split_indices":[2,3,1,0,0,0,0],"split_type":[0,0,0,0,0,0,0],"sum_hessian":[1.6368507E1,8.802654E0,7.565853E0,6.754854E0,2.0478008E0,2.172727E0,5.393126E0],"tree_param":{"num_deleted":"0","num_feature":"5","num_nodes":"7","size_leaf_vector":"0"}},{"base_weights":[-7.9833925E-2,3.1487057E-1,-3.0675057E-1,4.0790823E-1,2.7909414E-3,-1.06058635E-1,-4.432489E-1,-3.7852424E-1,2.3485114E-1],"categories":[],"categories_nodes":[],"categories_segments":[],"categories_sizes":[],"default_left":[1,1,1,0,0,1,0,0,0],"id":35,"left_children":[1,3,5,-1,-1,7,-1,-1,-1],"loss_changes":[1.5700845E0,1.875611E-1,2.5302923E-1,0E0,0E0,6.228357E-1,0E0,0E0,0E0],"parents":[2147483647,0,0,1,1,2,2,5,5],"right_children":[2,4,6,-1,-1,8,-1,-1,-1],"split_conditions":[5E-1,1.5E0,1.5E0,1.2237247E-1,8.3728245E-4,5E-1,-1.3297467E-1,-1.1355728E-1,7.045534E-2],"split_indices":[0,3,2,0,0,2,0,0,0],"split_type":[0,0,0,0,0,0,0,0,0],"sum_hessian":[1.5451709E1,5.499002E0,9.952706E0,3.9995775E0,1.4994246E0,4.7483125E0,5.2043943E0,2.5777555E0,2.170557E0],"tree_param":{"num_deleted":"0","num_feature":"5","num_nodes":"9","size_leaf_vector":"0"}},{"base_weights":[1.22194E-2,3.1153125E-1,-2.4247082E-1,4.2134863E-1,3.5496626E-2,-3.548531E-2,-4.1239083E-1,-3.3415252E-1,2.1963446E-1],"categories":[],"categories_nodes":[],"categories_segments":[],"categories_sizes":[],"default_left":[1,1,1,0,0,1,0,0,0],"id":36,"left_children":[1,3,5,-1,-1,7,-1,-1,-1],"loss_changes":[1.2780366E0,2.1813947E-1,3.0488455E-1,0E0,0E0,4.688332E-1,0E0,0E0,0E0],"parents":[2147483647,0,0,1,1,2,2,5,5],"right_children":[2,4,6,-1,-1,8,-1,-1,-1],"split_conditions":[5E-1,1.5E0,1.5E0,1.264046E-1,1.0648988E-2,1.5E0,-1.23717256E-1,-1.0024576E-1,6.589034E-2],"split_indices":[3,0,0,0,0,4,0,0,0],"split_type":[0,0,0,0,0,0,0,0,0],"sum_hessian":[1.4774248E1,6.6895337E0,8.084715E0,4.409019E0,2.2805145E0,4.189804E0,3.8949108E0,1.7874546E0,2.4023495E0],"tree_param":{"num_deleted":"0","num_feature":"5","num_nodes":"9","size_leaf_vector":"0"}},{"base_weights":[2.2135807E-2,3.7124884E-1,-3.3154833E-1,4.659819E-1,6.4132795E-2,5.676854E-2,-4.3804327E-1],"categories":[],"categories_nodes":[],"categories_segments":[],"categories_sizes":[],"default_left":[1,1,1,0,0,0,0],"id":37,"left_children":[1,3,5,-1,-1,-1,-1],"loss_changes":[1.9612066E0,2.0180297E-1,3.525161E-1,0E0,0E0,0E0,0E0],"parents":[2147483647,0,0,1,1,2,2],"right_children":[2,4,6,-1,-1,-1,-1],"split_conditions":[5E-1,5E-1,5E-1,1.3979457E-1,1.923984E-2,1.7030563E-2,-1.3141298E-1],"split_indices":[4,2,2,0,0,0,0],"split_type":[0,0,0,0,0,0,0],"sum_hessian":[1.3886483E1,6.963409E0,6.9230747E0,4.9264984E0,2.0369105E0,1.5905013E0,5.3325734E0],"tree_param":{"num_deleted":"0","num_feature":"5","num_nodes":"7","size_leaf_vector":"0"}},{"base_weights":[3.7494633E-2,-2.9149053E-1,4.1290638E-1,-4.4604954E-1,1.566306E-1,1.4732158E-1,4.7704485E-1],"categories":[],"categories_nodes":[],"categories_segments":[],"categories_sizes":[],"default_left":[1,1,1,0,0,0,0],"id":38,"left_children":[1,3,5,-1,-1,-1,-1],"loss_changes":[1.9656779E0,6.619929E-1,5.563891E-2,0E0,0E0,0E0,0E0],"parents":[2147483647,0,0,1,1,2,2],"right_children":[2,4,6,-1,-1,-1,-1],"split_conditions":[2.5E0,2.5E0,2.5E0,-1.3381487E-1,4.6989184E-2,4.4196475E-2,1.4311346E-1],"split_indices":[0,3,1,0,0,0,0],"split_type":[0,0,0,0,0,0,0],"sum_hessian":[1.3941267E1,7.549205E0,6.392062E0,5.616627E0,1.9325776E0,1.8847233E0,4.507339E0],"tree_param":{"num_deleted":"0","num_feature":"5","num_nodes":"7","size_leaf_vector":"0"}},{"base_weights":[-7.62762E-2,1.5610276E-1,-4.3653592E-1,-2.6598465E-1,3.977475E-1,-3.4789503E-1,-1.9046023E-2],"categories":[],"categories_nodes":[],"categories_segments":[],"categories_sizes":[],"default_left":[1,1,0,1,0,0,0],"id":39,"left_children":[1,3,-1,5,-1,-1,-1],"loss_changes":[1.2562332E0,1.0608413E0,0E0,7.4448735E-2,0E0,0E0,0E0],"parents":[2147483647,0,0,1,1,3,3],"right_children":[2,4,-1,6,-1,-1,-1],"split_conditions":[1.5E0,5E-1,-1.3096078E-1,5E-1,1.1932425E-1,-1.04368515E-1,-5.7138074E-3],"split_indices":[4,4,0,2,0,0,0],"split_type":[0,0,0,0,0,0,0],"sum_hessian":[1.3191764E1,8.363643E0,4.828121E0,3.008277E0,5.3553653E0,1.95197E0,1.056307E0],"tree_param":{"num_deleted":"0","num_feature":"5","num_nodes":"7","size_leaf_vector":"0"}},{"base_weights":[1.100892E-2,2.8476486E-1,-2.2959982E-1,3.8669348E-1,3.667001E-2,-3.928549E-1,-3.572902E-2,2.0473288E-1,-3.1974083E-1],"categories":[],"categories_nodes":[],"categories_segments":[],"categories_sizes":[],"default_left":[1,1,1,0,0,0,1,0,0],"id":40,"left_children":[1,3,5,-1,-1,-1,7,-1,-1],"loss_changes":[9.7498804E-1,1.6046298E-1,2.3610768E-1,0E0,0E0,0E0,3.873277E-1,0E0,0E0],"parents":[2147483647,0,0,1,1,2,2,6,6],"right_children":[2,4,6,-1,-1,-1,8,-1,-1],"split_conditions":[5E-1,1.5E0,1.5E0,1.1600805E-1,1.1001004E-2,-1.1785647E-1,2.5E0,6.1419867E-2,-9.5922254E-2],"split_indices":[3,0,4,0,0,0,2,0,0],"split_type":[0,0,0,0,0,0,0,0,0],"sum_hessian":[1.2809514E1,5.90617E0,6.9033446E0,3.7902932E0,2.1158764E0,3.1903958E0,3.7129488E0,2.1617868E0,1.5511621E0],"tree_param":{"num_deleted":"0","num_feature":"5","num_nodes":"9","size_leaf_vector":"0"}},{"base_weights":[2.0300394E-2,3.7446612E-1,-3.0108026E-1,4.4723126E-1,6.665127E-2,7.86838E-2,-4.3089825E-1],"categories":[],"categories_nodes":[],"categories_segments":[],"categories_sizes":[],"default_left":[1,1,1,0,0,0,0],"id":41,"left_children":[1,3,5,-1,-1,-1,-1],"loss_changes":[1.571988E0,1.16782844E-1,3.925938E-1,0E0,0E0,0E0,0E0],"parents":[2147483647,0,0,1,1,2,2],"right_children":[2,4,6,-1,-1,-1,-1],"split_conditions":[5E-1,5E-1,5E-1,1.3416938E-1,1.9995382E-2,2.3605142E-2,-1.2926948E-1],"split_indices":[1,4,2,0,0,0,0],"split_type":[0,0,0,0,0,0,0],"sum_hessian":[1.1820399E1,5.5447893E0,6.27561E0,4.1183248E0,1.4264646E0,1.6990812E0,4.576529E0],"tree_param":{"num_deleted":"0","num_feature":"5","num_nodes":"7","size_leaf_vector":"0"}},{"base_weights":[3.865804E-2,-2.847429E-1,3.9511254E-1,-4.2857042E-1,1.1817972E-1,5.844913E-2,4.6187755E-1],"categories":[],"categories_nodes":[],"categories_segments":[],"categories_sizes":[],"default_left":[1,1,1,0,0,0,0],"id":42,"left_children":[1,3,5,-1,-1,-1,-1],"loss_changes":[1.603595E0,4.7734338E-1,1.2071955E-1,0E0,0E0,0E0,0E0],"parents":[2147483647,0,0,1,1,2,2],"right_children":[2,4,6,-1,-1,-1,-1],"split_conditions":[2.5E0,2.5E0,1.5E0,-1.2857114E-1,3.545392E-2,1.753474E-2,1.3856328E-1],"split_indices":[1,0,4,0,0,0,0],"split_type":[0,0,0,0,0,0,0],"sum_hessian":[1.193476E1,6.3629856E0,5.571774E0,4.6422358E0,1.72075E0,1.2324708E0,4.3393035E0],"tree_param":{"num_deleted":"0","num_feature":"5","num_nodes":"7","size_leaf_vector":"0"}},{"base_weights":[-7.456146E-2,2.8219187E-1,-2.917142E-1,3.5910702E-1,7.701209E-3,-9.497937E-2,-4.090228E-1,-3.2826594E-1,1.8353276E-1],"categories":[],"categories_nodes":[],"categories_segments":[],"categories_sizes":[],"default_left":[1,1,1,0,0,1,0,0,0],"id":43,"left_children":[1,3,5,-1,-1,7,-1,-1,-1],"loss_changes":[1.0302266E0,1.0571125E-1,1.4803708E-1,0E0,0E0,3.4140587E-1,0E0,0E0,0E0],"parents":[2147483647,0,0,1,1,2,2,5,5],"right_children":[2,4,6,-1,-1,8,-1,-1,-1],"split_conditions":[5E-1,1.5E0,1.5E0,1.0773211E-1,2.3103626E-3,5E-1,-1.22706845E-1,-9.8479785E-2,5.505983E-2],"split_indices":[0,3,3,0,0,3,0,0,0],"split_type":[0,0,0,0,0,0,0,0,0],"sum_hessian":[1.12358055E1,4.1380405E0,7.0977645E0,2.991519E0,1.1465217E0,3.327301E0,3.7704635E0,1.713447E0,1.613854E0],"tree_param":{"num_deleted":"0","num_feature":"5","num_nodes":"9","size_leaf_vector":"0"}},{"base_weights":[1.0389866E-2,2.62847E-1,-2.1859147E-1,3.5612974E-1,4.0108025E-2,-2.3455001E-2,-3.7699658E-1,-2.869372E-1,1.8538196E-1],"categories":[],"categories_nodes":[],"categories_segments":[],"categories_sizes":[],"default_left":[1,1,1,0,0,1,0,0,0],"id":44,"left_children":[1,3,5,-1,-1,7,-1,-1,-1],"loss_changes":[7.612274E-1,1.1545989E-1,2.0536593E-1,0E0,0E0,2.827188E-1,0E0,0E0,0E0],"parents":[2147483647,0,0,1,1,2,2,5,5],"right_children":[2,4,6,-1,-1,8,-1,-1,-1],"split_conditions":[5E-1,1.5E0,1.5E0,1.0683893E-1,1.2032408E-2,5E-1,-1.1309898E-1,-8.608116E-2,5.561459E-2],"split_indices":[3,0,0,0,0,0,0,0,0],"split_type":[0,0,0,0,0,0,0,0,0],"sum_hessian":[1.1174296E1,5.2443657E0,5.92993E0,3.2742496E0,1.9701163E0,3.1713142E0,2.7586157E0,1.2368488E0,1.9344654E0],"tree_param":{"num_deleted":"0","num_feature":"5","num_nodes":"9","size_leaf_vector":"0"}},{"base_weights":[1.8701447E-2,3.43003E-1,-2.860986E-1,4.298841E-1,2.445807E-2,7.232201E-2,-4.1267756E-1],"categories":[],"categories_nodes":[],"categories_segments":[],"categories_sizes":[],"default_left":[1,1,1,0,0,0,0],"id":45,"left_children":[1,3,5,-1,-1,-1,-1],"loss_changes":[1.2005118E0,1.5161186E-1,3.1540704E-1,0E0,0E0,0E0,0E0],"parents":[2147483647,0,0,1,1,2,2],"right_children":[2,4,6,-1,-1,-1,-1],"split_conditions":[5E-1,1.5E0,5E-1,1.2896524E-1,7.337421E-3,2.1696605E-2,-1.2380327E-1],"split_indices":[2,1,1,0,0,0,0],"split_type":[0,0,0,0,0,0,0],"sum_hessian":[1.0152365E1,4.8580995E0,5.294265E0,3.5424063E0,1.3156931E0,1.4936085E0,3.8006566E0],"tree_param":{"num_deleted":"0","num_feature":"5","num_nodes":"7","size_leaf_vector":"0"}},{"base_weights":[3.7091557E-2,-2.7339995E-1,3.710458E-1,-4.126951E-1,1.1788333E-1,1.209666E-1,4.3050954E-1],"categories":[],"categories_nodes":[],"categories_segments":[],"categories_sizes":[],"default_left":[1,1,1,0,0,0,0],"id":46,"left_children":[1,3,5,-1,-1,-1,-1],"loss_changes":[1.2708658E0,3.9856982E-1,3.5034478E-2,0E0,0E0,0E0,0E0],"parents":[2147483647,0,0,1,1,2,2],"right_children":[2,4,6,-1,-1,-1,-1],"split_conditions":[2.5E0,2.5E0,2.5E0,-1.2380854E-1,3.5365E-2,3.6289982E-2,1.2915286E-1],"split_indices":[2,3,1,0,0,0,0],"split_type":[0,0,0,0,0,0,0],"sum_hessian":[1.0278062E1,5.420094E0,4.857968E0,3.9567766E0,1.4633174E0,1.5161166E0,3.341851E0],"tree_param":{"num_deleted":"0","num_feature":"5","num_nodes":"7","size_leaf_vector":"0"}},{"base_weights":[-7.033774E-2,1.443141E-1,-4.0363076E-1,-2.2163749E-1,3.4905514E-1],"categories":[],"categories_nodes":[],"categories_segments":[],"categories_sizes":[],"default_left":[1,1,0,0,0],"id":47,"left_children":[1,3,-1,-1,-1],"loss_changes":[8.2452303E-1,6.2069166E-1,0E0,0E0,0E0],"parents":[2147483647,0,0,1,1],"right_children":[2,4,-1,-1,-1],"split_conditions":[1.5E0,5E-1,-1.21089235E-1,-6.6491246E-2,1.0471655E-1],"split_indices":[4,4,0,0,0],"split_type":[0,0,0,0,0],"sum_hessian":[9.710826E0,6.2515945E0,3.4592307E0,2.2132082E0,4.038387E0],"tree_param":{"num_deleted":"0","num_feature":"5","num_nodes":"5","size_leaf_vector":"0"}},{"base_weights":[9.516147E-3,2.4044497E-1,-2.0499548E-1,-1.3595526E-2,3.0790234E-1,-1.9924834E-2,-3.5676816E-1,3.8770324E-1,4.2604826E-2,-2.66912E-1,1.7548266E-1],"categories":[],"categories_nodes":[],"categories_segments":[],"categories_sizes":[],"default_left":[1,1,1,0,1,1,0,0,0,0,0],"id":48,"left_children":[1,3,5,-1,7,9,-1,-1,-1,-1,-1],"loss_changes":[5.830513E-1,1.0099509E-1,1.6495878E-1,0E0,7.8881085E-2,2.3117001E-1,0E0,0E0,0E0,0E0,0E0],"parents":[2147483647,0,0,1,1,2,2,4,4,5,5],"right_children":[2,4,6,-1,8,10,-1,-1,-1,-1,-1],"split_conditions":[5E-1,1.5E0,1.5E0,-4.078658E-3,2.5E0,1.5E0,-1.0703045E-1,1.1631098E-1,1.2781449E-2,-8.007361E-2,5.26448E-2],"split_indices":[3,2,0,0,0,4,0,0,0,0,0],"split_type":[0,0,0,0,0,0,0,0,0,0,0],"sum_hessian":[9.775018E0,4.6491547E0,5.1258626E0,1.1430296E0,3.5061252E0,2.819303E0,2.3065596E0,2.3406672E0,1.1654578E0,1.0836668E0,1.7356362E0],"tree_param":{"num_deleted":"0","num_feature":"5","num_nodes":"11","size_leaf_vector":"0"}},{"base_weights":[1.7147595E-2,3.1619895E-1,-2.8822282E-1,4.04229E-1,4.440138E-2,2.9497445E-2,-3.8994566E-1],"categories":[],"categories_nodes":[],"categories_segments":[],"categories_sizes":[],"default_left":[1,1,1,0,0,0,0],"id":49,"left_children":[1,3,5,-1,-1,-1,-1],"loss_changes":[9.8611933E-1,1.1193037E-1,1.8512538E-1,0E0,0E0,0E0,0E0],"parents":[2147483647,0,0,1,1,2,2],"right_children":[2,4,6,-1,-1,-1,-1],"split_conditions":[5E-1,5E-1,5E-1,1.212687E-1,1.3320415E-2,8.849233E-3,-1.16983704E-1],"split_indices":[4,1,1,0,0,0,0],"split_type":[0,0,0,0,0,0,0],"sum_hessian":[8.800367E0,4.428271E0,4.3720965E0,2.9768748E0,1.451396E0,1.2325093E0,3.1395872E0],"tree_param":{"num_deleted":"0","num_feature":"5","num_nodes":"7","size_leaf_vector":"0"}},{"base_weights":[3.6223907E-2,-2.5512812E-1,3.535468E-1,-3.9582896E-1,1.03736825E-1,5.75334E-2,4.1505617E-1],"categories":[],"categories_nodes":[],"categories_segments":[],"categories_sizes":[],"default_left":[1,1,1,0,0,0,0],"id":50,"left_children":[1,3,5,-1,-1,-1,-1],"loss_changes":[1.0051287E0,3.3089292E-1,7.0001006E-2,0E0,0E0,0E0,0E0],"parents":[2147483647,0,0,1,1,2,2],"right_children":[2,4,6,-1,-1,-1,-1],"split_conditions":[2.5E0,2.5E0,1.5E0,-1.18748695E-1,3.112105E-2,1.726002E-2,1.2451685E-1],"split_indices":[1,2,2,0,0,0,0],"split_type":[0,0,0,0,0,0,0],"sum_hessian":[8.896189E0,4.7400656E0,4.1561227E0,3.3310513E0,1.4090142E0,1.0479984E0,3.1081243E0],"tree_param":{"num_deleted":"0","num_feature":"5","num_nodes":"7","size_leaf_vector":"0"}},{"base_weights":[-6.699471E-2,2.5786883E-1,-2.7628917E-1,-9.219013E-2,-3.7585878E-1,-2.9039165E-1,1.5619224E-1],"categories":[],"categories_nodes":[],"categories_segments":[],"categories_sizes":[],"default_left":[1,0,1,1,0,0,0],"id":51,"left_children":[1,-1,3,5,-1,-1,-1],"loss_changes":[7.0968026E-1,0E0,7.8879565E-2,2.1760865E-1,0E0,0E0,0E0],"parents":[2147483647,0,0,2,2,3,3],"right_children":[2,-1,4,6,-1,-1,-1],"split_conditions":[5E-1,7.736065E-2,1.5E0,5E-1,-1.1275764E-1,-8.71175E-2,4.6857674E-2],"split_indices":[0,0,2,2,0,0,0],"split_type":[0,0,0,0,0,0,0],"sum_hessian":[8.38982E0,3.1963735E0,5.1934466E0,2.498934E0,2.6945124E0,1.2957965E0,1.2031375E0],"tree_param":{"num_deleted":"0","num_feature":"5","num_nodes":"7","size_leaf_vector":"0"}},{"base_weights":[7.867013E-3,2.2437054E-1,-1.9810791E-1,-1.132189E-2,2.8832355E-1,-3.3989185E-1,-1.8895756E-2,3.650325E-1,3.6805604E-2,2.3016542E-1,-2.7684343E-1],"categories":[],"categories_nodes":[],"categories_segments":[],"categories_sizes":[],"default_left":[1,1,1,0,1,0,1,0,0,0,0],"id":52,"left_children":[1,3,5,-1,7,-1,9,-1,-1,-1,-1],"loss_changes":[4.7226885E-1,8.083385E-2,1.3199313E-1,0E0,6.539121E-2,0E0,2.8632715E-1,0E0,0E0,0E0,0E0],"parents":[2147483647,0,0,1,1,2,2,4,4,6,6],"right_children":[2,4,6,-1,8,-1,10,-1,-1,-1,-1],"split_conditions":[5E-1,1.5E0,1.5E0,-3.3965672E-3,2.5E0,-1.0196756E-1,2.5E0,1.0950975E-1,1.1041681E-2,6.904963E-2,-8.305303E-2],"split_indices":[3,2,2,0,0,0,2,0,0,0,0],"split_type":[0,0,0,0,0,0,0,0,0,0,0],"sum_hessian":[8.593587E0,4.1461706E0,4.4474163E0,1.0605576E0,3.0856133E0,1.982427E0,2.4649892E0,2.0186422E0,1.0669712E0,1.3088933E0,1.156096E0],"tree_param":{"num_deleted":"0","num_feature":"5","num_nodes":"11","size_leaf_vector":"0"}},{"base_weights":[1.6614515E-2,2.9794618E-1,-2.7354512E-1,3.8416058E-1,3.2804828E-2,3.0683009E-2,-3.7353703E-1],"categories":[],"categories_nodes":[],"categories_segments":[],"categories_sizes":[],"default_left":[1,1,1,0,0,0,0],"id":53,"left_children":[1,3,5,-1,-1,-1,-1],"loss_changes":[7.92888E-1,9.948182E-2,1.5782467E-1,0E0,0E0,0E0,0E0],"parents":[2147483647,0,0,1,1,2,2],"right_children":[2,4,6,-1,-1,-1,-1],"split_conditions":[5E-1,5E-1,5E-1,1.1524818E-1,9.841449E-3,9.204903E-3,-1.1206111E-1],"split_indices":[4,2,2,0,0,0,0],"split_type":[0,0,0,0,0,0,0],"sum_hessian":[7.7146482E0,3.9032838E0,3.8113642E0,2.606768E0,1.2965161E0,1.1142807E0,2.6970835E0],"tree_param":{"num_deleted":"0","num_feature":"5","num_nodes":"7","size_leaf_vector":"0"}},{"base_weights":[3.5891008E-2,-2.4764082E-1,3.314337E-1,-3.8108343E-1,9.871834E-2,8.994679E-2,3.9010966E-1],"categories":[],"categories_nodes":[],"categories_segments":[],"categories_sizes":[],"default_left":[1,1,1,0,0,0,0],"id":54,"left_children":[1,3,5,-1,-1,-1,-1],"loss_changes":[8.1635016E-1,2.7077457E-1,3.176391E-2,0E0,0E0,0E0,0E0],"parents":[2147483647,0,0,1,1,2,2],"right_children":[2,4,6,-1,-1,-1,-1],"split_conditions":[2.5E0,2.5E0,2.5E0,-1.1432503E-1,2.9615503E-2,2.6984038E-2,1.170329E-1],"split_indices":[0,3,2,0,0,0,0],"split_type":[0,0,0,0,0,0,0],"sum_hessian":[7.7626576E0,4.0445547E0,3.718103E0,2.8473098E0,1.1972449E0,1.2219565E0,2.4961462E0],"tree_param":{"num_deleted":"0","num_feature":"5","num_nodes":"7","size_leaf_vector":"0"}},{"base_weights":[-6.391884E-2,2.3674071E-1,-2.662627E-1,-8.343694E-2,-3.5832357E-1,1.4894226E-1,-2.691588E-1],"categories":[],"categories_nodes":[],"categories_segments":[],"categories_sizes":[],"default_left":[1,0,1,1,0,0,0],"id":55,"left_children":[1,-1,3,5,-1,-1,-1],"loss_changes":[5.720128E-1,0E0,6.2192768E-2,1.7542976E-1,0E0,0E0,0E0],"parents":[2147483647,0,0,2,2,3,3],"right_children":[2,-1,4,6,-1,-1,-1],"split_conditions":[5E-1,7.102221E-2,1.5E0,1.5E0,-1.0749707E-1,4.468268E-2,-8.074765E-2],"split_indices":[0,0,3,1,0,0,0],"split_type":[0,0,0,0,0,0,0],"sum_hessian":[7.366303E0,2.8948703E0,4.471433E0,2.1359413E0,2.3354917E0,1.0367603E0,1.0991809E0],"tree_param":{"num_deleted":"0","num_feature":"5","num_nodes":"7","size_leaf_vector":"0"}},{"base_weights":[9.038689E-3,-2.6155654E-1,1.6038935E-1,3.8714832E-1,-3.1976068E-1],"categories":[],"categories_nodes":[],"categories_segments":[],"categories_sizes":[],"default_left":[1,0,1,0,0],"id":56,"left_children":[1,-1,3,-1,-1],"loss_changes":[3.9549586E-1,0E0,7.9404736E-1,0E0,0E0],"parents":[2147483647,0,0,2,2],"right_children":[2,-1,4,-1,-1],"split_conditions":[1.5E0,-7.846697E-2,2.5E0,1.161445E-1,-9.592821E-2],"split_indices":[1,0,1,0,0],"split_type":[0,0,0,0,0],"sum_hessian":[7.632572E0,2.4765947E0,5.1559777E0,3.6336281E0,1.5223494E0],"tree_param":{"num_deleted":"0","num_feature":"5","num_nodes":"5","size_leaf_vector":"0"}},{"base_weights":[1.4542404E-2,2.9488844E-1,-2.5432095E-1,3.675335E-1,3.0830761E-2,3.1566676E-2,-3.6248553E-1],"categories":[],"categories_nodes":[],"categories_segments":[],"categories_sizes":[],"default_left":[1,1,1,0,0,0,0],"id":57,"left_children":[1,3,5,-1,-1,-1,-1],"loss_changes":[6.5930325E-1,7.03485E-2,1.5040952E-1,0E0,0E0,0E0,0E0],"parents":[2147483647,0,0,1,1,2,2],"right_children":[2,4,6,-1,-1,-1,-1],"split_conditions":[5E-1,5E-1,5E-1,1.10260054E-1,9.249229E-3,9.470003E-3,-1.08745664E-1],"split_indices":[1,4,2,0,0,0,0],"split_type":[0,0,0,0,0,0,0],"sum_hessian":[6.752023E0,3.2580407E0,3.4939828E0,2.2477834E0,1.0102572E0,1.1534591E0,2.3405235E0],"tree_param":{"num_deleted":"0","num_feature":"5","num_nodes":"7","size_leaf_vector":"0"}},{"base_weights":[3.5061117E-2,-2.4124633E-1,3.2479402E-1,-3.6518118E-1,8.121315E-2,9.865461E-2,3.7141684E-1],"categories":[],"categories_nodes":[],"categories_segments":[],"categories_sizes":[],"default_left":[1,1,1,0,0,0,0],"id":58,"left_children":[1,3,5,-1,-1,-1,-1],"loss_changes":[7.034639E-1,2.1231797E-1,8.038491E-3,0E0,0E0,0E0,0E0],"parents":[2147483647,0,0,1,1,2,2],"right_children":[2,4,6,-1,-1,-1,-1],"split_conditions":[2.5E0,2.5E0,2.5E0,-1.0955436E-1,2.4363944E-2,2.9596385E-2,1.1142506E-1],"split_indices":[1,2,0,0,0,0,0],"split_type":[0,0,0,0,0,0,0],"sum_hessian":[6.8084536E0,3.5706282E0,3.2378254E0,2.4835916E0,1.0870367E0,1.0860521E0,2.1517732E0],"tree_param":{"num_deleted":"0","num_feature":"5","num_nodes":"7","size_leaf_vector":"0"}},{"base_weights":[-6.1953735E-2,1.3176519E-1,-3.5583463E-1,3.0989683E-1,-1.7287654E-1],"categories":[],"categories_nodes":[],"categories_segments":[],"categories_sizes":[],"default_left":[1,1,0,0,0],"id":59,"left_children":[1,3,-1,-1,-1],"loss_changes":[4.737537E-1,3.384136E-1,0E0,0E0,0E0],"parents":[2147483647,0,0,1,1],"right_children":[2,4,-1,-1,-1],"split_conditions":[1.5E0,1.5E0,-1.0675039E-1,9.296905E-2,-5.1862963E-2],"split_indices":[4,3,0,0,0],"split_type":[0,0,0,0,0],"sum_hessian":[6.4980664E0,4.2489214E0,2.249145E0,2.6702874E0,1.5786341E0],"tree_param":{"num_deleted":"0","num_feature":"5","num_nodes":"5","size_leaf_vector":"0"}},{"base_weights":[3.5057017E-3,2.0435947E-1,-1.9037074E-1,2.7635378E-1,1.8144757E-2,-3.0519813E-1,-2.5386129E-2],"categories":[],"categories_nodes":[],"categories_segments":[],"categories_sizes":[],"default_left":[1,1,1,0,0,0,0],"id":60,"left_children":[1,3,5,-1,-1,-1,-1],"loss_changes":[3.3537176E-1,5.158259E-2,7.545097E-2,0E0,0E0,0E0,0E0],"parents":[2147483647,0,0,1,1,2,2],"right_children":[2,4,6,-1,-1,-1,-1],"split_conditions":[5E-1,1.5E0,1.5E0,8.2906134E-2,5.4434272E-3,-9.155944E-2,-7.6158387E-3],"split_indices":[3,0,2,0,0,0,0],"split_type":[0,0,0,0,0,0,0],"sum_hessian":[6.61329E0,3.2216387E0,3.3916514E0,1.9742823E0,1.2473564E0,1.4987088E0,1.8929425E0],"tree_param":{"num_deleted":"0","num_feature":"5","num_nodes":"7","size_leaf_vector":"0"}},{"base_weights":[1.8383646E-2,2.744803E-1,-2.465444E-1,3.4843552E-1,3.062697E-2,-7.6797724E-2,-3.101761E-1],"categories":[],"categories_nodes":[],"categories_segments":[],"categories_sizes":[],"default_left":[1,1,1,0,0,0,0],"id":61,"left_children":[1,3,5,-1,-1,-1,-1],"loss_changes":[5.3953505E-1,6.1637312E-2,1.8793046E-2,0E0,0E0,0E0,0E0],"parents":[2147483647,0,0,1,1,2,2],"right_children":[2,4,6,-1,-1,-1,-1],"split_conditions":[5E-1,5E-1,1.5E0,1.0453066E-1,9.188091E-3,-2.3039319E-2,-9.3052834E-2],"split_indices":[4,2,1,0,0,0,0],"split_type":[0,0,0,0,0,0,0],"sum_hessian":[5.9547987E0,3.0095327E0,2.9452658E0,1.9801304E0,1.0294024E0,1.4047645E0,1.5405012E0],"tree_param":{"num_deleted":"0","num_feature":"5","num_nodes":"7","size_leaf_vector":"0"}},{"base_weights":[3.3836804E-2,-2.2323607E-1,2.9622048E-1,-3.03825E-1,-5.97304E-2,7.826212E-2,3.4633297E-1],"categories":[],"categories_nodes":[],"categories_segments":[],"categories_sizes":[],"default_left":[1,1,1,0,0,0,0],"id":62,"left_children":[1,3,5,-1,-1,-1,-1],"loss_changes":[5.3225034E-1,3.5360694E-2,1.4942914E-2,0E0,0E0,0E0,0E0],"parents":[2147483647,0,0,1,1,2,2],"right_children":[2,4,6,-1,-1,-1,-1],"split_conditions":[2.5E0,1.5E0,2.5E0,-9.11475E-2,-1.7919121E-2,2.3478637E-2,1.03899896E-1],"split_indices":[2,4,1,0,0,0,0],"split_type":[0,0,0,0,0,0,0],"sum_hessian":[5.910472E0,3.0608122E0,2.84966E0,1.4754151E0,1.5853971E0,1.0115917E0,1.8380681E0],"tree_param":{"num_deleted":"0","num_feature":"5","num_nodes":"7","size_leaf_vector":"0"}},{"base_weights":[-5.8137383E-2,2.102511E-1,-2.5072557E-1,-8.2500346E-2,-3.2147583E-1],"categories":[],"categories_nodes":[],"categories_segments":[],"categories_sizes":[],"default_left":[1,0,1,0,0],"id":63,"left_children":[1,-1,3,-1,-1],"loss_changes":[3.9800864E-1,0E0,2.5197834E-2,0E0,0E0],"parents":[2147483647,0,0,2,2],"right_children":[2,-1,4,-1,-1],"split_conditions":[5E-1,6.3075334E-2,1.5E0,-2.4750104E-2,-9.644275E-2],"split_indices":[0,0,3,0,0],"split_type":[0,0,0,0,0],"sum_hessian":[5.6802797E0,2.3348076E0,3.3454719E0,1.6317304E0,1.7137414E0],"tree_param":{"num_deleted":"0","num_feature":"5","num_nodes":"5","size_leaf_vector":"0"}},{"base_weights":[7.805736E-3,1.960491E-1,-1.769616E-1,2.5911862E-1,2.4374476E-2,-1.423308E-2,-2.9218224E-1],"categories":[],"categories_nodes":[],"categories_segments":[],"categories_sizes":[],"default_left":[1,1,1,0,0,0,0],"id":64,"left_children":[1,3,5,-1,-1,-1,-1],"loss_changes":[2.8198206E-1,3.6952794E-2,7.297067E-2,0E0,0E0,0E0,0E0],"parents":[2147483647,0,0,1,1,2,2],"right_children":[2,4,6,-1,-1,-1,-1],"split_conditions":[5E-1,1.5E0,1.5E0,7.773559E-2,7.312343E-3,-4.269924E-3,-8.765467E-2],"split_indices":[3,0,0,0,0,0,0],"split_type":[0,0,0,0,0,0,0],"sum_hessian":[6.1098394E0,2.9962065E0,3.1136332E0,1.8186975E0,1.1775091E0,1.7564669E0,1.3571662E0],"tree_param":{"num_deleted":"0","num_feature":"5","num_nodes":"7","size_leaf_vector":"0"}},{"base_weights":[1.2880364E-2,2.5804663E-1,-2.3496877E-1,-7.530124E-2,-2.938137E-1],"categories":[],"categories_nodes":[],"categories_segments":[],"categories_sizes":[],"default_left":[1,0,1,0,0],"id":65,"left_children":[1,-1,3,-1,-1],"loss_changes":[4.4823262E-1,0E0,1.2596279E-2,0E0,0E0],"parents":[2147483647,0,0,2,2],"right_children":[2,-1,4,-1,-1],"split_conditions":[5E-1,7.741399E-2,1.5E0,-2.2590373E-2,-8.8144116E-2],"split_indices":[4,0,1,0,0],"split_type":[0,0,0,0,0],"sum_hessian":[5.378746E0,2.683324E0,2.6954222E0,1.3397776E0,1.3556445E0],"tree_param":{"num_deleted":"0","num_feature":"5","num_nodes":"5","size_leaf_vector":"0"}},{"base_weights":[3.115296E-2,-2.1470347E-1,2.9224494E-1,-2.7914834E-1,-8.140083E-2],"categories":[],"categories_nodes":[],"categories_segments":[],"categories_sizes":[],"default_left":[1,1,0,0,0],"id":66,"left_children":[1,3,-1,-1,-1],"loss_changes":[4.738868E-1,1.056765E-2,0E0,0E0,0E0],"parents":[2147483647,0,0,1,1],"right_children":[2,4,-1,-1,-1],"split_conditions":[2.5E0,1.5E0,8.7673485E-2,-8.37445E-2,-2.4420248E-2],"split_indices":[1,0,0,0,0],"split_type":[0,0,0,0,0],"sum_hessian":[5.404946E0,2.875197E0,2.529749E0,1.2006505E0,1.6745465E0],"tree_param":{"num_deleted":"0","num_feature":"5","num_nodes":"5","size_leaf_vector":"0"}},{"base_weights":[-5.4482058E-2,1.2543373E-1,-3.2533368E-1,-1.4998686E-1,2.7824748E-1],"categories":[],"categories_nodes":[],"categories_segments":[],"categories_sizes":[],"default_left":[1,1,0,0,0],"id":67,"left_children":[1,3,-1,-1,-1],"loss_changes":[3.4240198E-1,2.2862622E-1,0E0,0E0,0E0],"parents":[2147483647,0,0,1,1],"right_children":[2,4,-1,-1,-1],"split_conditions":[1.5E0,5E-1,-9.760011E-2,-4.499606E-2,8.347425E-2],"split_indices":[4,4,0,0,0],"split_type":[0,0,0,0,0],"sum_hessian":[5.1890244E0,3.4405186E0,1.7485061E0,1.2343369E0,2.2061818E0],"tree_param":{"num_deleted":"0","num_feature":"5","num_nodes":"5","size_leaf_vector":"0"}},{"base_weights":[6.1987913E-3,-2.2684032E-1,1.5034313E-1,3.3272675E-1,-1.8210523E-1],"categories":[],"categories_nodes":[],"categories_segments":[],"categories_sizes":[],"default_left":[1,0,1,0,0],"id":68,"left_children":[1,-1,3,-1,-1],"loss_changes":[2.5450587E-1,0E0,3.428527E-1,0E0,0E0],"parents":[2147483647,0,0,2,2],"right_children":[2,-1,4,-1,-1],"split_conditions":[1.5E0,-6.80521E-2,2.5E0,9.981803E-2,-5.4631572E-2],"split_indices":[2,0,2,0,0],"split_type":[0,0,0,0,0],"sum_hessian":[5.561288E0,1.9060545E0,3.6552334E0,2.359795E0,1.2954384E0],"tree_param":{"num_deleted":"0","num_feature":"5","num_nodes":"5","size_leaf_vector":"0"}},{"base_weights":[1.1152708E-2,2.59421E-1,-2.2765486E-1,-2.8520536E-1,-7.687634E-2],"categories":[],"categories_nodes":[],"categories_segments":[],"categories_sizes":[],"default_left":[1,0,1,0,0],"id":69,"left_children":[1,-1,3,-1,-1],"loss_changes":[4.1178894E-1,0E0,9.010121E-3,0E0,0E0],"parents":[2147483647,0,0,2,2],"right_children":[2,-1,4,-1,-1],"split_conditions":[5E-1,7.78263E-2,1.5E0,-8.556161E-2,-2.3062903E-2],"split_indices":[2,0,0,0,0],"split_type":[0,0,0,0,0],"sum_hessian":[4.949406E0,2.384315E0,2.5650914E0,1.2112273E0,1.3538642E0],"tree_param":{"num_deleted":"0","num_feature":"5","num_nodes":"5","size_leaf_vector":"0"}},{"base_weights":[2.5386252E-2,-2.1794668E-1,2.7417037E-1,-2.7432036E-1,-7.483894E-2],"categories":[],"categories_nodes":[],"categories_segments":[],"categories_sizes":[],"default_left":[1,1,0,0,0],"id":70,"left_children":[1,3,-1,-1,-1],"loss_changes":[4.1820744E-1,8.113936E-3,0E0,0E0,0E0],"parents":[2147483647,0,0,1,1],"right_children":[2,4,-1,-1,-1],"split_conditions":[2.5E0,1.5E0,8.225112E-2,-8.229611E-2,-2.2451682E-2],"split_indices":[2,4,0,0,0],"split_type":[0,0,0,0,0],"sum_hessian":[4.921184E0,2.5505106E0,2.3706732E0,1.1719648E0,1.378546E0],"tree_param":{"num_deleted":"0","num_feature":"5","num_nodes":"5","size_leaf_vector":"0"}},{"base_weights":[-4.4923883E-2,2.0196836E-1,-2.3125187E-1,-7.115826E-2,-2.934775E-1],"categories":[],"categories_nodes":[],"categories_segments":[],"categories_sizes":[],"default_left":[1,0,1,0,0],"id":71,"left_children":[1,-1,3,-1,-1],"loss_changes":[3.1022632E-1,0E0,1.6282484E-2,0E0,0E0],"parents":[2147483647,0,0,2,2],"right_children":[2,-1,4,-1,-1],"split_conditions":[5E-1,6.059051E-2,1.5E0,-2.1347478E-2,-8.804326E-2],"split_indices":[0,0,3,0,0],"split_type":[0,0,0,0,0],"sum_hessian":[4.7283473E0,1.9975592E0,2.730788E0,1.3642945E0,1.3664935E0],"tree_param":{"num_deleted":"0","num_feature":"5","num_nodes":"5","size_leaf_vector":"0"}},{"base_weights":[1.0765234E-2,-2.1744879E-1,1.4834134E-1,2.6609915E-1,-1.23254456E-1],"categories":[],"categories_nodes":[],"categories_segments":[],"categories_sizes":[],"default_left":[1,0,1,0,0],"id":72,"left_children":[1,-1,3,-1,-1],"loss_changes":[2.2331032E-1,0E0,1.7323118E-1,0E0,0E0],"parents":[2147483647,0,0,2,2],"right_children":[2,-1,4,-1,-1],"split_conditions":[1.5E0,-6.523464E-2,2.5E0,7.982975E-2,-3.6976337E-2],"split_indices":[1,0,2,0,0],"split_type":[0,0,0,0,0],"sum_hessian":[5.085133E0,1.6941959E0,3.390937E0,2.3794847E0,1.0114526E0],"tree_param":{"num_deleted":"0","num_feature":"5","num_nodes":"5","size_leaf_vector":"0"}},{"base_weights":[6.9622886E-3,2.4207586E-1,-2.2816223E-1,-2.7420154E-1,-7.6617494E-2],"categories":[],"categories_nodes":[],"categories_segments":[],"categories_sizes":[],"default_left":[1,0,1,0,0],"id":73,"left_children":[1,-1,3,-1,-1],"loss_changes":[3.610482E-1,0E0,1.8811524E-3,0E0,0E0],"parents":[2147483647,0,0,2,2],"right_children":[2,-1,4,-1,-1],"split_conditions":[5E-1,7.262276E-2,1.5E0,-8.226047E-2,-2.298525E-2],"split_indices":[1,0,3,0,0],"split_type":[0,0,0,0,0],"sum_hessian":[4.532024E0,2.2512822E0,2.2807417E0,1.1285203E0,1.1522216E0],"tree_param":{"num_deleted":"0","num_feature":"5","num_nodes":"5","size_leaf_vector":"0"}},{"base_weights":[2.2625923E-2,-2.1492694E-1,2.657814E-1,-2.6867804E-1,-6.780027E-2],"categories":[],"categories_nodes":[],"categories_segments":[],"categories_sizes":[],"default_left":[1,1,0,0,0],"id":74,"left_children":[1,3,-1,-1,-1],"loss_changes":[3.762908E-1,8.259162E-3,0E0,0E0,0E0],"parents":[2147483647,0,0,1,1],"right_children":[2,4,-1,-1,-1],"split_conditions":[2.5E0,1.5E0,7.973442E-2,-8.060341E-2,-2.0340081E-2],"split_indices":[0,4,0,0,0],"split_type":[0,0,0,0,0],"sum_hessian":[4.52553E0,2.34786E0,2.1776698E0,1.114516E0,1.2333441E0],"tree_param":{"num_deleted":"0","num_feature":"5","num_nodes":"5","size_leaf_vector":"0"}},{"base_weights":[-4.3220118E-2,1.2313935E-1,-2.9652637E-1,2.6512718E-1,-1.3741408E-1],"categories":[],"categories_nodes":[],"categories_segments":[],"categories_sizes":[],"default_left":[1,1,0,0,0],"id":75,"left_children":[1,3,-1,-1,-1],"loss_changes":[2.598334E-1,1.8091007E-1,0E0,0E0,0E0],"parents":[2147483647,0,0,1,1],"right_children":[2,4,-1,-1,-1],"split_conditions":[1.5E0,1.5E0,-8.895791E-2,7.953816E-2,-4.1224226E-2],"split_indices":[4,3,0,0,0],"split_type":[0,0,0,0,0],"sum_hessian":[4.299475E0,2.9052906E0,1.3941847E0,1.8691493E0,1.0361413E0],"tree_param":{"num_deleted":"0","num_feature":"5","num_nodes":"5","size_leaf_vector":"0"}},{"base_weights":[1.2016295E-2,1.863615E-1,-1.6578573E-1,-2.0676583E-1,-5.7280276E-2],"categories":[],"categories_nodes":[],"categories_segments":[],"categories_sizes":[],"default_left":[1,0,1,0,0],"id":76,"left_children":[1,-1,3,-1,-1],"loss_changes":[2.0714508E-1,0E0,3.0262992E-3,0E0,0E0],"parents":[2147483647,0,0,2,2],"right_children":[2,-1,4,-1,-1],"split_conditions":[5E-1,5.5908453E-2,1.5E0,-6.2029753E-2,-1.7184084E-2],"split_indices":[3,0,1,0,0],"split_type":[0,0,0,0,0],"sum_hessian":[4.685648E0,2.3415153E0,2.3441324E0,1.0441862E0,1.2999461E0],"tree_param":{"num_deleted":"0","num_feature":"5","num_nodes":"5","size_leaf_vector":"0"}},{"base_weights":[5.1655853E-3,2.2833098E-1,-2.1729563E-1],"categories":[],"categories_nodes":[],"categories_segments":[],"categories_sizes":[],"default_left":[1,0,0],"id":77,"left_children":[1,-1,-1],"loss_changes":[3.051251E-1,0E0,0E0],"parents":[2147483647,0,0],"right_children":[2,-1,-1],"split_conditions":[5E-1,6.84993E-2,-6.518869E-2],"split_indices":[4,0,0],"split_type":[0,0,0],"sum_hessian":[4.14667E0,2.0568867E0,2.0897832E0],"tree_param":{"num_deleted":"0","num_feature":"5","num_nodes":"3","size_leaf_vector":"0"}},{"base_weights":[2.1342084E-2,-2.0068347E-1,2.6033112E-1],"categories":[],"categories_nodes":[],"categories_segments":[],"categories_sizes":[],"default_left":[1,0,0],"id":78,"left_children":[1,-1,-1],"loss_changes":[3.268632E-1,0E0,0E0],"parents":[2147483647,0,0],"right_children":[2,-1,-1],"split_conditions":[2.5E0,-6.0205046E-2,7.809934E-2],"split_indices":[1,0,0],"split_type":[0,0,0],"sum_hessian":[4.175469E0,2.2476444E0,1.9278246E0],"tree_param":{"num_deleted":"0","num_feature":"5","num_nodes":"3","size_leaf_vector":"0"}},{"base_weights":[-4.2192787E-2,1.768844E-1,-2.1083732E-1,-6.597679E-2,-2.5992265E-1],"categories":[],"categories_nodes":[],"categories_segments":[],"categories_sizes":[],"default_left":[1,0,1,0,0],"id":79,"left_children":[1,-1,3,-1,-1],"loss_changes":[2.1711926E-1,0E0,5.6501776E-3,0E0,0E0],"parents":[2147483647,0,0,2,2],"right_children":[2,-1,4,-1,-1],"split_conditions":[5E-1,5.3065322E-2,1.5E0,-1.9793037E-2,-7.79768E-2],"split_indices":[0,0,3,0,0],"split_type":[0,0,0,0,0],"sum_hessian":[3.8672278E0,1.6608483E0,2.2063794E0,1.1516771E0,1.0547024E0],"tree_param":{"num_deleted":"0","num_feature":"5","num_nodes":"5","size_leaf_vector":"0"}},{"base_weights":[9.095391E-3,-1.9828658E-1,1.3977511E-1,2.9510492E-1,-1.4294435E-1],"categories":[],"categories_nodes":[],"categories_segments":[],"categories_sizes":[],"default_left":[1,0,1,0,0],"id":80,"left_children":[1,-1,3,-1,-1],"loss_changes":[1.7389338E-1,0E0,2.132488E-1,0E0,0E0],"parents":[2147483647,0,0,2,2],"right_children":[2,-1,4,-1,-1],"split_conditions":[1.5E0,-5.9485976E-2,2.5E0,8.853148E-2,-4.2883307E-2],"split_indices":[2,0,2,0,0],"split_type":[0,0,0,0,0],"sum_hessian":[4.3938937E0,1.4985015E0,2.8953922E0,1.8404284E0,1.054964E0],"tree_param":{"num_deleted":"0","num_feature":"5","num_nodes":"5","size_leaf_vector":"0"}},{"base_weights":[4.7299857E-3,2.2637816E-1,-2.087094E-1],"categories":[],"categories_nodes":[],"categories_segments":[],"categories_sizes":[],"default_left":[1,0,0],"id":81,"left_children":[1,-1,-1],"loss_changes":[2.772444E-1,0E0,0E0],"parents":[2147483647,0,0],"right_children":[2,-1,-1],"split_conditions":[5E-1,6.791345E-2,-6.2612824E-2],"split_indices":[2,0,0],"split_type":[0,0,0],"sum_hessian":[3.86165E0,1.8646579E0,1.9969921E0],"tree_param":{"num_deleted":"0","num_feature":"5","num_nodes":"3","size_leaf_vector":"0"}},{"base_weights":[2.172912E-2,-1.9872811E-1,2.454273E-1],"categories":[],"categories_nodes":[],"categories_segments":[],"categories_sizes":[],"default_left":[1,0,0],"id":82,"left_children":[1,-1,-1],"loss_changes":[2.898339E-1,0E0,0E0],"parents":[2147483647,0,0],"right_children":[2,-1,-1],"split_conditions":[2.5E0,-5.9618436E-2,7.3628195E-2],"split_indices":[0,0,0],"split_type":[0,0,0],"sum_hessian":[3.8880925E0,2.014451E0,1.8736416E0],"tree_param":{"num_deleted":"0","num_feature":"5","num_nodes":"3","size_leaf_vector":"0"}},{"base_weights":[-3.854645E-2,1.1591627E-1,-2.711317E-1,2.2731613E-1,-6.456256E-2],"categories":[],"categories_nodes":[],"categories_segments":[],"categories_sizes":[],"default_left":[1,1,0,0,0],"id":83,"left_children":[1,3,-1,-1,-1],"loss_changes":[1.9757724E-1,8.463535E-2,0E0,0E0,0E0],"parents":[2147483647,0,0,1,1],"right_children":[2,4,-1,-1,-1],"split_conditions":[1.5E0,5E-1,-8.133951E-2,6.8194844E-2,-1.9368768E-2],"split_indices":[4,0,0,0,0],"split_type":[0,0,0,0,0],"sum_hessian":[3.624779E0,2.4796386E0,1.1451404E0,1.3727793E0,1.1068594E0],"tree_param":{"num_deleted":"0","num_feature":"5","num_nodes":"5","size_leaf_vector":"0"}},{"base_weights":[5.723412E-3,1.7105739E-1,-1.6218834E-1],"categories":[],"categories_nodes":[],"categories_segments":[],"categories_sizes":[],"default_left":[1,0,0],"id":84,"left_children":[1,-1,-1],"loss_changes":[1.6749546E-1,0E0,0E0],"parents":[2147483647,0,0],"right_children":[2,-1,-1],"split_conditions":[5E-1,5.131722E-2,-4.8656505E-2],"split_indices":[3,0,0],"split_type":[0,0,0],"sum_hessian":[4.0340166E0,2.023171E0,2.0108454E0],"tree_param":{"num_deleted":"0","num_feature":"5","num_nodes":"3","size_leaf_vector":"0"}},{"base_weights":[8.514178E-3,2.1353047E-1,-1.998262E-1],"categories":[],"categories_nodes":[],"categories_segments":[],"categories_sizes":[],"default_left":[1,0,0],"id":85,"left_children":[1,-1,-1],"loss_changes":[2.3812985E-1,0E0,0E0],"parents":[2147483647,0,0],"right_children":[2,-1,-1],"split_conditions":[5E-1,6.4059146E-2,-5.994786E-2],"split_indices":[4,0,0],"split_type":[0,0,0],"sum_hessian":[3.5761266E0,1.7898864E0,1.7862402E0],"tree_param":{"num_deleted":"0","num_feature":"5","num_nodes":"3","size_leaf_vector":"0"}},{"base_weights":[1.9783176E-2,-1.8909065E-1,2.470775E-1],"categories":[],"categories_nodes":[],"categories_segments":[],"categories_sizes":[],"default_left":[1,0,0],"id":86,"left_children":[1,-1,-1],"loss_changes":[2.6498878E-1,0E0,0E0],"parents":[2147483647,0,0],"right_children":[2,-1,-1],"split_conditions":[2.5E0,-5.6727197E-2,7.412325E-2],"split_indices":[3,0,0],"split_type":[0,0,0],"sum_hessian":[3.5974708E0,1.9622899E0,1.635181E0],"tree_param":{"num_deleted":"0","num_feature":"5","num_nodes":"3","size_leaf_vector":"0"}},{"base_weights":[-3.674168E-2,1.06690116E-1,-2.5467777E-1,2.0948923E-1,-5.8178257E-2],"categories":[],"categories_nodes":[],"categories_segments":[],"categories_sizes":[],"default_left":[1,1,0,0,0],"id":87,"left_children":[1,3,-1,-1,-1],"loss_changes":[1.6221182E-1,6.828874E-2,0E0,0E0,0E0],"parents":[2147483647,0,0,1,1],"right_children":[2,4,-1,-1,-1],"split_conditions":[1.5E0,5E-1,-7.6403335E-2,6.284677E-2,-1.7453479E-2],"split_indices":[4,0,0,0,0],"split_type":[0,0,0,0,0],"sum_hessian":[3.3200479E0,2.310123E0,1.009925E0,1.2562053E0,1.0539175E0],"tree_param":{"num_deleted":"0","num_feature":"5","num_nodes":"5","size_leaf_vector":"0"}},{"base_weights":[2.9590076E-3,-1.8280199E-1,1.1893392E-1,2.2874731E-1,-7.443674E-2],"categories":[],"categories_nodes":[],"categories_segments":[],"categories_sizes":[],"default_left":[1,0,1,0,0],"id":88,"left_children":[1,-1,3,-1,-1],"loss_changes":[1.250983E-1,0E0,9.2610225E-2,0E0,0E0],"parents":[2147483647,0,0,2,2],"right_children":[2,-1,4,-1,-1],"split_conditions":[1.5E0,-5.48406E-2,1.5E0,6.86242E-2,-2.2331022E-2],"split_indices":[4,0,0,0,0],"split_type":[0,0,0,0,0],"sum_hessian":[3.7975667E0,1.2381537E0,2.5594132E0,1.5157089E0,1.0437042E0],"tree_param":{"num_deleted":"0","num_feature":"5","num_nodes":"5","size_leaf_vector":"0"}},{"base_weights":[1.0894153E-2,2.092098E-1,-1.9788504E-1],"categories":[],"categories_nodes":[],"categories_segments":[],"categories_sizes":[],"default_left":[1,0,0],"id":89,"left_children":[1,-1,-1],"loss_changes":[2.2132681E-1,0E0,0E0],"parents":[2147483647,0,0],"right_children":[2,-1,-1],"split_conditions":[5E-1,6.2762946E-2,-5.9365515E-2],"split_indices":[1,0,0],"split_type":[0,0,0],"sum_hessian":[3.3456318E0,1.7147545E0,1.6308774E0],"tree_param":{"num_deleted":"0","num_feature":"5","num_nodes":"3","size_leaf_vector":"0"}},{"base_weights":[1.7694209E-2,-1.8723732E-1,2.3730348E-1],"categories":[],"categories_nodes":[],"categories_segments":[],"categories_sizes":[],"default_left":[1,0,0],"id":90,"left_children":[1,-1,-1],"loss_changes":[2.4012488E-1,0E0,0E0],"parents":[2147483647,0,0],"right_children":[2,-1,-1],"split_conditions":[2.5E0,-5.6171197E-2,7.119105E-2],"split_indices":[1,0,0],"split_type":[0,0,0],"sum_hessian":[3.3482587E0,1.808261E0,1.5399977E0],"tree_param":{"num_deleted":"0","num_feature":"5","num_nodes":"3","size_leaf_vector":"0"}},{"base_weights":[-3.3824004E-2,1.0318425E-1,-2.2782984E-1],"categories":[],"categories_nodes":[],"categories_segments":[],"categories_sizes":[],"default_left":[1,0,0],"id":91,"left_children":[1,-1,-1],"loss_changes":[1.3233069E-1,0E0,0E0],"parents":[2147483647,0,0],"right_children":[2,-1,-1],"split_conditions":[1.5E0,3.0955277E-2,-6.834896E-2],"split_indices":[2,0,0],"split_type":[0,0,0],"sum_hessian":[3.0940776E0,2.0877986E0,1.0062791E0],"tree_param":{"num_deleted":"0","num_feature":"5","num_nodes":"3","size_leaf_vector":"0"}},{"base_weights":[1.7157725E-4,1.4657333E-1,-1.4685734E-1],"categories":[],"categories_nodes":[],"categories_segments":[],"categories_sizes":[],"default_left":[1,0,0],"id":92,"left_children":[1,-1,-1],"loss_changes":[1.1909331E-1,0E0,0E0],"parents":[2147483647,0,0],"right_children":[2,-1,-1],"split_conditions":[5E-1,4.3972E-2,-4.40572E-2],"split_indices":[3,0,0],"split_type":[0,0,0],"sum_hessian":[3.532712E0,1.7716838E0,1.761028E0],"tree_param":{"num_deleted":"0","num_feature":"5","num_nodes":"3","size_leaf_vector":"0"}},{"base_weights":[1.2930671E-2,2.1162343E-1,-1.8691842E-1],"categories":[],"categories_nodes":[],"categories_segments":[],"categories_sizes":[],"default_left":[1,0,0],"id":93,"left_children":[1,-1,-1],"loss_changes":[2.05106E-1,0E0,0E0],"parents":[2147483647,0,0],"right_children":[2,-1,-1],"split_conditions":[5E-1,6.348703E-2,-5.607553E-2],"split_indices":[2,0,0],"split_type":[0,0,0],"sum_hessian":[3.169118E0,1.5596129E0,1.609505E0],"tree_param":{"num_deleted":"0","num_feature":"5","num_nodes":"3","size_leaf_vector":"0"}},{"base_weights":[1.9267375E-2,-1.8431264E-1,2.191185E-1],"categories":[],"categories_nodes":[],"categories_segments":[],"categories_sizes":[],"default_left":[1,0,0],"id":94,"left_children":[1,-1,-1],"loss_changes":[2.0908616E-1,0E0,0E0],"parents":[2147483647,0,0],"right_children":[2,-1,-1],"split_conditions":[2.5E0,-5.5293795E-2,6.5735556E-2],"split_indices":[2,0,0],"split_type":[0,0,0],"sum_hessian":[3.1464167E0,1.5971832E0,1.5492334E0],"tree_param":{"num_deleted":"0","num_feature":"5","num_nodes":"3","size_leaf_vector":"0"}},{"base_weights":[-3.4430634E-2,1.4531387E-1,-1.7531396E-1],"categories":[],"categories_nodes":[],"categories_segments":[],"categories_sizes":[],"default_left":[1,0,0],"id":95,"left_children":[1,-1,-1],"loss_changes":[1.2445477E-1,0E0,0E0],"parents":[2147483647,0,0],"right_children":[2,-1,-1],"split_conditions":[5E-1,4.3594163E-2,-5.2594192E-2],"split_indices":[0,0,0],"split_type":[0,0,0],"sum_hessian":[2.908668E0,1.2642455E0,1.6444227E0],"tree_param":{"num_deleted":"0","num_feature":"5","num_nodes":"3","size_leaf_vector":"0"}},{"base_weights":[6.2279514E-4,-1.7088646E-1,1.1233921E-1],"categories":[],"categories_nodes":[],"categories_segments":[],"categories_sizes":[],"default_left":[1,0,0],"id":96,"left_children":[1,-1,-1],"loss_changes":[1.0260508E-1,0E0,0E0],"parents":[2147483647,0,0],"right_children":[2,-1,-1],"split_conditions":[1.5E0,-5.126594E-2,3.3701766E-2],"split_indices":[1,0,0],"split_type":[0,0,0],"sum_hessian":[3.3531365E0,1.113707E0,2.2394297E0],"tree_param":{"num_deleted":"0","num_feature":"5","num_nodes":"3","size_leaf_vector":"0"}},{"base_weights":[1.1534566E-2,1.9866097E-1,-1.8273327E-1],"categories":[],"categories_nodes":[],"categories_segments":[],"categories_sizes":[],"default_left":[1,0,0],"id":97,"left_children":[1,-1,-1],"loss_changes":[1.8146287E-1,0E0,0E0],"parents":[2147483647,0,0],"right_children":[2,-1,-1],"split_conditions":[5E-1,5.9598293E-2,-5.4819982E-2],"split_indices":[4,0,0],"split_type":[0,0,0],"sum_hessian":[2.993132E0,1.51307E0,1.4800621E0],"tree_param":{"num_deleted":"0","num_feature":"5","num_nodes":"3","size_leaf_vector":"0"}},{"base_weights":[1.6798E-2,-1.7941548E-1,2.1482031E-1],"categories":[],"categories_nodes":[],"categories_segments":[],"categories_sizes":[],"default_left":[1,0,0],"id":98,"left_children":[1,-1,-1],"loss_changes":[1.9299518E-1,0E0,0E0],"parents":[2147483647,0,0],"right_children":[2,-1,-1],"split_conditions":[2.5E0,-5.3824645E-2,6.44461E-2],"split_indices":[0,0,0],"split_type":[0,0,0],"sum_hessian":[2.975151E0,1.5415981E0,1.4335531E0],"tree_param":{"num_deleted":"0","num_feature":"5","num_nodes":"3","size_leaf_vector":"0"}},{"base_weights":[-3.0856933E-2,1.0907337E-1,-1.9185026E-1],"categories":[],"categories_nodes":[],"categories_segments":[],"categories_sizes":[],"default_left":[1,0,0],"id":99,"left_children":[1,-1,-1],"loss_changes":[1.0528169E-1,0E0,0E0],"parents":[2147483647,0,0],"right_children":[2,-1,-1],"split_conditions":[1.5E0,3.272201E-2,-5.755508E-2],"split_indices":[3,0,0],"split_type":[0,0,0],"sum_hessian":[2.744519E0,1.6408455E0,1.1036736E0],"tree_param":{"num_deleted":"0","num_feature":"5","num_nodes":"3","size_leaf_vector":"0"}},{"base_weights":[1.0089391E-3,1.3880938E-1,-1.3822465E-1],"categories":[],"categories_nodes":[],"categories_segments":[],"categories_sizes":[],"default_left":[1,0,0],"id":100,"left_children":[1,-1,-1],"loss_changes":[1.0038808E-1,0E0,0E0],"parents":[2147483647,0,0],"right_children":[2,-1,-1],"split_conditions":[5E-1,4.1642815E-2,-4.1467395E-2],"split_indices":[3,0,0],"split_type":[0,0,0],"sum_hessian":[3.2322164E0,1.6259998E0,1.6062165E0],"tree_param":{"num_deleted":"0","num_feature":"5","num_nodes":"3","size_leaf_vector":"0"}},{"base_weights":[7.7173603E-3,1.8341309E-1,-1.7716466E-1],"categories":[],"categories_nodes":[],"categories_segments":[],"categories_sizes":[],"default_left":[1,0,0],"id":101,"left_children":[1,-1,-1],"loss_changes":[1.556706E-1,0E0,0E0],"parents":[2147483647,0,0],"right_children":[2,-1,-1],"split_conditions":[5E-1,5.5023927E-2,-5.31494E-2],"split_indices":[1,0,0],"split_type":[0,0,0],"sum_hessian":[2.7920249E0,1.4356519E0,1.356373E0],"tree_param":{"num_deleted":"0","num_feature":"5","num_nodes":"3","size_leaf_vector":"0"}},{"base_weights":[1.9444365E-2,-1.7229106E-1,2.1804644E-1],"categories":[],"categories_nodes":[],"categories_segments":[],"categories_sizes":[],"default_left":[1,0,0],"id":102,"left_children":[1,-1,-1],"loss_changes":[1.8301348E-1,0E0,0E0],"parents":[2147483647,0,0],"right_children":[2,-1,-1],"split_conditions":[2.5E0,-5.168732E-2,6.541394E-2],"split_indices":[1,0,0],"split_type":[0,0,0],"sum_hessian":[2.8195808E0,1.5019965E0,1.3175842E0],"tree_param":{"num_deleted":"0","num_feature":"5","num_nodes":"3","size_leaf_vector":"0"}},{"base_weights":[-2.9887041E-2,1.3428569E-1,-1.6059066E-1],"categories":[],"categories_nodes":[],"categories_segments":[],"categories_sizes":[],"default_left":[1,0,0],"id":103,"left_children":[1,-1,-1],"loss_changes":[9.8965175E-2,0E0,0E0],"parents":[2147483647,0,0],"right_children":[2,-1,-1],"split_conditions":[5E-1,4.0285707E-2,-4.81772E-2],"split_indices":[0,0,0],"split_type":[0,0,0],"sum_hessian":[2.6070576E0,1.1434277E0,1.46363E0],"tree_param":{"num_deleted":"0","num_feature":"5","num_nodes":"3","size_leaf_vector":"0"}},{"base_weights":[4.113853E-4,-1.6281429E-1,1.07962765E-1],"categories":[],"categories_nodes":[],"categories_segments":[],"categories_sizes":[],"default_left":[1,0,0],"id":104,"left_children":[1,-1,-1],"loss_changes":[8.897676E-2,0E0,0E0],"parents":[2147483647,0,0],"right_children":[2,-1,-1],"split_conditions":[1.5E0,-4.884429E-2,3.2388832E-2],"split_indices":[2,0,0],"split_type":[0,0,0],"sum_hessian":[3.0671196E0,1.0141555E0,2.0529642E0],"tree_param":{"num_deleted":"0","num_feature":"5","num_nodes":"3","size_leaf_vector":"0"}},{"base_weights":[6.324637E-3,1.8956535E-1,-1.7420253E-1],"categories":[],"categories_nodes":[],"categories_segments":[],"categories_sizes":[],"default_left":[1,0,0],"id":105,"left_children":[1,-1,-1],"loss_changes":[1.5405543E-1,0E0,0E0],"parents":[2147483647,0,0],"right_children":[2,-1,-1],"split_conditions":[5E-1,5.6869607E-2,-5.226076E-2],"split_indices":[2,0,0],"split_type":[0,0,0],"sum_hessian":[2.658795E0,1.2946349E0,1.3641603E0],"tree_param":{"num_deleted":"0","num_feature":"5","num_nodes":"3","size_leaf_vector":"0"}},{"base_weights":[1.7575478E-2,-1.7018636E-1,2.007164E-1],"categories":[],"categories_nodes":[],"categories_segments":[],"categories_sizes":[],"default_left":[1,0,0],"id":106,"left_children":[1,-1,-1],"loss_changes":[1.6060285E-1,0E0,0E0],"parents":[2147483647,0,0],"right_children":[2,-1,-1],"split_conditions":[2.5E0,-5.105591E-2,6.0214926E-2],"split_indices":[2,0,0],"split_type":[0,0,0],"sum_hessian":[2.6770904E0,1.356796E0,1.3202943E0],"tree_param":{"num_deleted":"0","num_feature":"5","num_nodes":"3","size_leaf_vector":"0"}},{"base_weights":[-2.5690166E-2,1.2684804E-1,-1.4904425E-1],"categories":[],"categories_nodes":[],"categories_segments":[],"categories_sizes":[],"default_left":[1,0,0],"id":107,"left_children":[1,-1,-1],"loss_changes":[8.44141E-2,0E0,0E0],"parents":[2147483647,0,0],"right_children":[2,-1,-1],"split_conditions":[5E-1,3.8054414E-2,-4.4713274E-2],"split_indices":[0,0,0],"split_type":[0,0,0],"sum_hessian":[2.481473E0,1.0968261E0,1.384647E0],"tree_param":{"num_deleted":"0","num_feature":"5","num_nodes":"3","size_leaf_vector":"0"}},{"base_weights":[-1.1524584E-3,1.1636995E-1,-1.478121E-1],"categories":[],"categories_nodes":[],"categories_segments":[],"categories_sizes":[],"default_left":[1,0,0],"id":108,"left_children":[1,-1,-1],"loss_changes":[8.498728E-2,0E0,0E0],"parents":[2147483647,0,0],"right_children":[2,-1,-1],"split_conditions":[1.5E0,3.4910984E-2,-4.434363E-2],"split_indices":[0,0,0],"split_type":[0,0,0],"sum_hessian":[2.932885E0,1.7428343E0,1.1900507E0],"tree_param":{"num_deleted":"0","num_feature":"5","num_nodes":"3","size_leaf_vector":"0"}},{"base_weights":[4.5663957E-3,1.8089445E-1,-1.7395808E-1],"categories":[],"categories_nodes":[],"categories_segments":[],"categories_sizes":[],"default_left":[1,0,0],"id":109,"left_children":[1,-1,-1],"loss_changes":[1.4237407E-1,0E0,0E0],"parents":[2147483647,0,0],"right_children":[2,-1,-1],"split_conditions":[5E-1,5.4268338E-2,-5.2187424E-2],"split_indices":[4,0,0],"split_type":[0,0,0],"sum_hessian":[2.5231888E0,1.2627245E0,1.2604644E0],"tree_param":{"num_deleted":"0","num_feature":"5","num_nodes":"3","size_leaf_vector":"0"}},{"base_weights":[2.0146318E-2,-1.582842E-1,2.0286964E-1],"categories":[],"categories_nodes":[],"categories_segments":[],"categories_sizes":[],"default_left":[1,0,0],"id":110,"left_children":[1,-1,-1],"loss_changes":[1.4843136E-1,0E0,0E0],"parents":[2147483647,0,0],"right_children":[2,-1,-1],"split_conditions":[2.5E0,-4.7485262E-2,6.0860895E-2],"split_indices":[1,0,0],"split_type":[0,0,0],"sum_hessian":[2.5677333E0,1.3667967E0,1.2009366E0],"tree_param":{"num_deleted":"0","num_feature":"5","num_nodes":"3","size_leaf_vector":"0"}},{"base_weights":[-2.4912158E-2,1.1625242E-1,-1.3852729E-1],"categories":[],"categories_nodes":[],"categories_segments":[],"categories_sizes":[],"default_left":[1,0,0],"id":111,"left_children":[1,-1,-1],"loss_changes":[6.981733E-2,0E0,0E0],"parents":[2147483647,0,0],"right_children":[2,-1,-1],"split_conditions":[5E-1,3.487573E-2,-4.1558187E-2],"split_indices":[0,0,0],"split_type":[0,0,0],"sum_hessian":[2.3490303E0,1.037163E0,1.3118672E0],"tree_param":{"num_deleted":"0","num_feature":"5","num_nodes":"3","size_leaf_vector":"0"}},{"base_weights":[-3.4084497E-3,1.2709892E-1,-1.3261577E-1],"categories":[],"categories_nodes":[],"categories_segments":[],"categories_sizes":[],"default_left":[1,0,0],"id":112,"left_children":[1,-1,-1],"loss_changes":[8.0852434E-2,0E0,0E0],"parents":[2147483647,0,0],"right_children":[2,-1,-1],"split_conditions":[5E-1,3.8129676E-2,-3.9784733E-2],"split_indices":[3,0,0],"split_type":[0,0,0],"sum_hessian":[2.795231E0,1.3987377E0,1.3964934E0],"tree_param":{"num_deleted":"0","num_feature":"5","num_nodes":"3","size_leaf_vector":"0"}},{"base_weights":[3.444363E-3,1.6894233E-1,-1.6343337E-1],"categories":[],"categories_nodes":[],"categories_segments":[],"categories_sizes":[],"default_left":[1,0,0],"id":113,"left_children":[1,-1,-1],"loss_changes":[1.2134084E-1,0E0,0E0],"parents":[2147483647,0,0],"right_children":[2,-1,-1],"split_conditions":[5E-1,5.06827E-2,-4.9030013E-2],"split_indices":[4,0,0],"split_type":[0,0,0],"sum_hessian":[2.3938115E0,1.1956627E0,1.1981487E0],"tree_param":{"num_deleted":"0","num_feature":"5","num_nodes":"3","size_leaf_vector":"0"}},{"base_weights":[1.7466275E-2,-1.4809716E-1,1.96896E-1],"categories":[],"categories_nodes":[],"categories_segments":[],"categories_sizes":[],"default_left":[1,0,0],"id":114,"left_children":[1,-1,-1],"loss_changes":[1.3116373E-1,0E0,0E0],"parents":[2147483647,0,0],"right_children":[2,-1,-1],"split_conditions":[2.5E0,-4.442915E-2,5.9068803E-2],"split_indices":[3,0,0],"split_type":[0,0,0],"sum_hessian":[2.4336684E0,1.3565631E0,1.0771052E0],"tree_param":{"num_deleted":"0","num_feature":"5","num_nodes":"3","size_leaf_vector":"0"}},{"base_weights":[-1.7950378E-2,1.1429263E-1,-1.2825543E-1],"categories":[],"categories_nodes":[],"categories_segments":[],"categories_sizes":[],"default_left":[1,0,0],"id":115,"left_children":[1,-1,-1],"loss_changes":[6.2381867E-2,0E0,0E0],"parents":[2147483647,0,0],"right_children":[2,-1,-1],"split_conditions":[5E-1,3.428779E-2,-3.847663E-2],"split_indices":[0,0,0],"split_type":[0,0,0],"sum_hessian":[2.2716107E0,1.0166339E0,1.254977E0],"tree_param":{"num_deleted":"0","num_feature":"5","num_nodes":"3","size_leaf_vector":"0"}},{"base_weights":[-4.357009E-3,1.06504746E-1,-1.4052895E-1],"categories":[],"categories_nodes":[],"categories_segments":[],"categories_sizes":[],"default_left":[1,0,0],"id":116,"left_children":[1,-1,-1],"loss_changes":[7.0690446E-2,0E0,0E0],"parents":[2147483647,0,0],"right_children":[2,-1,-1],"split_conditions":[1.5E0,3.1951424E-2,-4.2158686E-2],"split_indices":[0,0,0],"split_type":[0,0,0],"sum_hessian":[2.6912086E0,1.6035638E0,1.0876448E0],"tree_param":{"num_deleted":"0","num_feature":"5","num_nodes":"3","size_leaf_vector":"0"}},{"base_weights":[2.90557E-3,1.6951284E-1,-1.5980987E-1],"categories":[],"categories_nodes":[],"categories_segments":[],"categories_sizes":[],"default_left":[1,0,0],"id":117,"left_children":[1,-1,-1],"loss_changes":[1.15811564E-1,0E0,0E0],"parents":[2147483647,0,0],"right_children":[2,-1,-1],"split_conditions":[5E-1,5.0853852E-2,-4.7942962E-2],"split_indices":[2,0,0],"split_type":[0,0,0],"sum_hessian":[2.2727087E0,1.1022848E0,1.170424E0],"tree_param":{"num_deleted":"0","num_feature":"5","num_nodes":"3","size_leaf_vector":"0"}},{"base_weights":[1.6209679E-2,-1.5877564E-1,1.8514152E-1],"categories":[],"categories_nodes":[],"categories_segments":[],"categories_sizes":[],"default_left":[1,0,0],"id":118,"left_children":[1,-1,-1],"loss_changes":[1.2746787E-1,0E0,0E0],"parents":[2147483647,0,0],"right_children":[2,-1,-1],"split_conditions":[2.5E0,-4.7632694E-2,5.5542458E-2],"split_indices":[2,0,0],"split_type":[0,0,0],"sum_hessian":[2.3176577E0,1.1679626E0,1.149695E0],"tree_param":{"num_deleted":"0","num_feature":"5","num_nodes":"3","size_leaf_vector":"0"}},{"base_weights":[-1.4830908E-2],"categories":[],"categories_nodes":[],"categories_segments":[],"categories_sizes":[],"default_left":[0],"id":119,"left_children":[-1],"loss_changes":[0E0],"parents":[2147483647],"right_children":[-1],"split_conditions":[-4.4492725E-3],"split_indices":[0],"split_type":[0],"sum_hessian":[2.1828349E0],"tree_param":{"num_deleted":"0","num_feature":"5","num_nodes":"1","size_leaf_vector":"0"}},{"base_weights":[-4.416223E-3,1.13948815E-1,-1.2172065E-1],"categories":[],"categories_nodes":[],"categories_segments":[],"categories_sizes":[],"default_left":[1,0,0],"id":120,"left_children":[1,-1,-1],"loss_changes":[6.384237E-2,0E0,0E0],"parents":[2147483647,0,0],"right_children":[2,-1,-1],"split_conditions":[5E-1,3.4184646E-2,-3.6516197E-2],"split_indices":[3,0,0],"split_type":[0,0,0],"sum_hessian":[2.5990908E0,1.3079356E0,1.2911553E0],"tree_param":{"num_deleted":"0","num_feature":"5","num_nodes":"3","size_leaf_vector":"0"}},{"base_weights":[2.0488442E-3,1.5928705E-1,-1.6087538E-1],"categories":[],"categories_nodes":[],"categories_segments":[],"categories_sizes":[],"default_left":[1,0,0],"id":121,"left_children":[1,-1,-1],"loss_changes":[1.07029356E-1,0E0,0E0],"parents":[2147483647,0,0],"right_children":[2,-1,-1],"split_conditions":[5E-1,4.7786117E-2,-4.8262615E-2],"split_indices":[1,0,0],"split_type":[0,0,0],"sum_hessian":[2.1776197E0,1.1195074E0,1.0581124E0],"tree_param":{"num_deleted":"0","num_feature":"5","num_nodes":"3","size_leaf_vector":"0"}},{"base_weights":[1.3665673E-2,-1.5204664E-1,1.8640208E-1],"categories":[],"categories_nodes":[],"categories_segments":[],"categories_sizes":[],"default_left":[1,0,0],"id":122,"left_children":[1,-1,-1],"loss_changes":[1.2047944E-1,0E0,0E0],"parents":[2147483647,0,0],"right_children":[2,-1,-1],"split_conditions":[2.5E0,-4.5613993E-2,5.5920627E-2],"split_indices":[1,0,0],"split_type":[0,0,0],"sum_hessian":[2.218833E0,1.1935723E0,1.0252607E0],"tree_param":{"num_deleted":"0","num_feature":"5","num_nodes":"3","size_leaf_vector":"0"}},{"base_weights":[-1.1038566E-2],"categories":[],"categories_nodes":[],"categories_segments":[],"categories_sizes":[],"default_left":[0],"id":123,"left_children":[-1],"loss_changes":[0E0],"parents":[2147483647],"right_children":[-1],"split_conditions":[-3.31157E-3],"split_indices":[0],"split_type":[0],"sum_hessian":[2.1348474E0],"tree_param":{"num_deleted":"0","num_feature":"5","num_nodes":"1","size_leaf_vector":"0"}},{"base_weights":[-4.2876666E-3,1.0469767E-1,-1.11847445E-1],"categories":[],"categories_nodes":[],"categories_segments":[],"categories_sizes":[],"default_left":[1,0,0],"id":124,"left_children":[1,-1,-1],"loss_changes":[5.2776963E-2,0E0,0E0],"parents":[2147483647,0,0],"right_children":[2,-1,-1],"split_conditions":[5E-1,3.14093E-2,-3.3554234E-2],"split_indices":[3,0,0],"split_type":[0,0,0],"sum_hessian":[2.503264E0,1.2566094E0,1.2466545E0],"tree_param":{"num_deleted":"0","num_feature":"5","num_nodes":"3","size_leaf_vector":"0"}},{"base_weights":[1.129308E-3,1.5619501E-1,-1.5408303E-1],"categories":[],"categories_nodes":[],"categories_segments":[],"categories_sizes":[],"default_left":[1,0,0],"id":125,"left_children":[1,-1,-1],"loss_changes":[9.866925E-2,0E0,0E0],"parents":[2147483647,0,0],"right_children":[2,-1,-1],"split_conditions":[5E-1,4.6858504E-2,-4.622491E-2],"split_indices":[4,0,0],"split_type":[0,0,0],"sum_hessian":[2.0996308E0,1.0471444E0,1.0524864E0],"tree_param":{"num_deleted":"0","num_feature":"5","num_nodes":"3","size_leaf_vector":"0"}},{"base_weights":[1.2750764E-2,-1.5309744E-1,1.7867789E-1],"categories":[],"categories_nodes":[],"categories_segments":[],"categories_sizes":[],"default_left":[1,0,0],"id":126,"left_children":[1,-1,-1],"loss_changes":[1.1352884E-1,0E0,0E0],"parents":[2147483647,0,0],"right_children":[2,-1,-1],"split_conditions":[2.5E0,-4.592923E-2,5.360337E-2],"split_indices":[0,0,0],"split_type":[0,0,0],"sum_hessian":[2.1314585E0,1.1046525E0,1.026806E0],"tree_param":{"num_deleted":"0","num_feature":"5","num_nodes":"3","size_leaf_vector":"0"}},{"base_weights":[-9.211938E-3],"categories":[],"categories_nodes":[],"categories_segments":[],"categories_sizes":[],"default_left":[0],"id":127,"left_children":[-1],"loss_changes":[0E0],"parents":[2147483647],"right_children":[-1],"split_conditions":[-2.7635815E-3],"split_indices":[0],"split_type":[0],"sum_hessian":[2.0837777E0],"tree_param":{"num_deleted":"0","num_feature":"5","num_nodes":"1","size_leaf_vector":"0"}},{"base_weights":[-4.469278E-3,9.8321065E-2,-1.05669595E-1],"categories":[],"categories_nodes":[],"categories_segments":[],"categories_sizes":[],"default_left":[1,0,0],"id":128,"left_children":[1,-1,-1],"loss_changes":[4.6105083E-2,0E0,0E0],"parents":[2147483647,0,0],"right_children":[2,-1,-1],"split_conditions":[5E-1,2.9496321E-2,-3.170088E-2],"split_indices":[3,0,0],"split_type":[0,0,0],"sum_hessian":[2.4333882E0,1.221325E0,1.2120632E0],"tree_param":{"num_deleted":"0","num_feature":"5","num_nodes":"3","size_leaf_vector":"0"}},{"base_weights":[1.0176298E-3,1.450137E-1,-1.4330004E-1],"categories":[],"categories_nodes":[],"categories_segments":[],"categories_sizes":[],"default_left":[1,0,0],"id":129,"left_children":[1,-1,-1],"loss_changes":[8.329881E-2,0E0,0E0],"parents":[2147483647,0,0],"right_children":[2,-1,-1],"split_conditions":[5E-1,4.350411E-2,-4.2990014E-2],"split_indices":[4,0,0],"split_type":[0,0,0],"sum_hessian":[2.0084116E0,1.0029118E0,1.0055E0],"tree_param":{"num_deleted":"0","num_feature":"5","num_nodes":"3","size_leaf_vector":"0"}},{"base_weights":[1.1567491E-2,-1.5045622E-1,1.7019305E-1],"categories":[],"categories_nodes":[],"categories_segments":[],"categories_sizes":[],"default_left":[1,0,0],"id":130,"left_children":[1,-1,-1],"loss_changes":[1.0374961E-1,0E0,0E0],"parents":[2147483647,0,0],"right_children":[2,-1,-1],"split_conditions":[2.5E0,-4.513687E-2,5.1057916E-2],"split_indices":[2,0,0],"split_type":[0,0,0],"sum_hessian":[2.040454E0,1.0348923E0,1.0055616E0],"tree_param":{"num_deleted":"0","num_feature":"5","num_nodes":"3","size_leaf_vector":"0"}},{"base_weights":[-7.5181485E-3],"categories":[],"categories_nodes":[],"categories_segments":[],"categories_sizes":[],"default_left":[0],"id":131,"left_children":[-1],"loss_changes":[0E0],"parents":[2147483647],"right_children":[-1],"split_conditions":[-2.2554446E-3],"split_indices":[0],"split_type":[0],"sum_hessian":[2.044256E0],"tree_param":{"num_deleted":"0","num_feature":"5","num_nodes":"1","size_leaf_vector":"0"}},{"base_weights":[-3.8340713E-3,9.215428E-2,-9.8671086E-2],"categories":[],"categories_nodes":[],"categories_segments":[],"categories_sizes":[],"default_left":[1,0,0],"id":132,"left_children":[1,-1,-1],"loss_changes":[3.9704632E-2,0E0,0E0],"parents":[2147483647,0,0],"right_children":[2,-1,-1],"split_conditions":[5E-1,2.7646285E-2,-2.9601326E-2],"split_indices":[3,0,0],"split_type":[0,0,0],"sum_hessian":[2.3627186E0,1.1882902E0,1.1744285E0],"tree_param":{"num_deleted":"0","num_feature":"5","num_nodes":"3","size_leaf_vector":"0"}},{"base_weights":[5.340085E-4],"categories":[],"categories_nodes":[],"categories_segments":[],"categories_sizes":[],"default_left":[0],"id":133,"left_children":[-1],"loss_changes":[0E0],"parents":[2147483647],"right_children":[-1],"split_conditions":[1.6020256E-4],"split_indices":[0],"split_type":[0],"sum_hessian":[1.9426463E0],"tree_param":{"num_deleted":"0","num_feature":"5","num_nodes":"1","size_leaf_vector":"0"}},{"base_weights":[1.0340787E-2],"categories":[],"categories_nodes":[],"categories_segments":[],"categories_sizes":[],"default_left":[0],"id":134,"left_children":[-1],"loss_changes":[0E0],"parents":[2147483647],"right_children":[-1],"split_conditions":[3.1022362E-3],"split_indices":[0],"split_type":[0],"sum_hessian":[1.9581932E0],"tree_param":{"num_deleted":"0","num_feature":"5","num_nodes":"1","size_leaf_vector":"0"}},{"base_weights":[-6.4148023E-3],"categories":[],"categories_nodes":[],"categories_segments":[],"categories_sizes":[],"default_left":[0],"id":135,"left_children":[-1],"loss_changes":[0E0],"parents":[2147483647],"right_children":[-1],"split_conditions":[-1.9244407E-3],"split_indices":[0],"split_type":[0],"sum_hessian":[2.0038676E0],"tree_param":{"num_deleted":"0","num_feature":"5","num_nodes":"1","size_leaf_vector":"0"}},{"base_weights":[-3.372228E-3,8.524784E-2,-9.1076724E-2],"categories":[],"categories_nodes":[],"categories_segments":[],"categories_sizes":[],"default_left":[1,0,0],"id":136,"left_children":[1,-1,-1],"loss_changes":[3.3714373E-2,0E0,0E0],"parents":[2147483647,0,0],"right_children":[2,-1,-1],"split_conditions":[5E-1,2.5574353E-2,-2.7323019E-2],"split_indices":[3,0,0],"split_type":[0,0,0],"sum_hessian":[2.3387823E0,1.1772516E0,1.1615306E0],"tree_param":{"num_deleted":"0","num_feature":"5","num_nodes":"3","size_leaf_vector":"0"}},{"base_weights":[4.500731E-4],"categories":[],"categories_nodes":[],"categories_segments":[],"categories_sizes":[],"default_left":[0],"id":137,"left_children":[-1],"loss_changes":[0E0],"parents":[2147483647],"right_children":[-1],"split_conditions":[1.3502194E-4],"split_indices":[0],"split_type":[0],"sum_hessian":[1.9360113E0],"tree_param":{"num_deleted":"0","num_feature":"5","num_nodes":"1","size_leaf_vector":"0"}},{"base_weights":[8.880602E-3],"categories":[],"categories_nodes":[],"categories_segments":[],"categories_sizes":[],"default_left":[0],"id":138,"left_children":[-1],"loss_changes":[0E0],"parents":[2147483647],"right_children":[-1],"split_conditions":[2.6641807E-3],"split_indices":[0],"split_type":[0],"sum_hessian":[1.9508737E0],"tree_param":{"num_deleted":"0","num_feature":"5","num_nodes":"1","size_leaf_vector":"0"}},{"base_weights":[-5.4321946E-3],"categories":[],"categories_nodes":[],"categories_segments":[],"categories_sizes":[],"default_left":[0],"id":139,"left_children":[-1],"loss_changes":[0E0],"parents":[2147483647],"right_children":[-1],"split_conditions":[-1.6296584E-3],"split_indices":[0],"split_type":[0],"sum_hessian":[1.9948221E0],"tree_param":{"num_deleted":"0","num_feature":"5","num_nodes":"1","size_leaf_vector":"0"}},{"base_weights":[-2.9699688E-3,7.88274E-2,-8.403966E-2],"categories":[],"categories_nodes":[],"categories_segments":[],"categories_sizes":[],"default_left":[1,0,0],"id":140,"left_children":[1,-1,-1],"loss_changes":[2.8628416E-2,0E0,0E0],"parents":[2147483647,0,0],"right_children":[2,-1,-1],"split_conditions":[5E-1,2.3648223E-2,-2.5211899E-2],"split_indices":[3,0,0],"split_type":[0,0,0],"sum_hessian":[2.3181775E0,1.1676775E0,1.1504999E0],